 #define GATE_WEIGHTS {0.0,0.0,0.09470538049936295,-0.09470538049936295,-0.09470538049936295,-0.09470538049936295,0.0,-0.28411614894866943,-0.09470538049936295,-0.1894107609987259,-0.09470538049936295,0.09470538049936295,-0.09470538049936295,-0.1894107609987259,0.09470538049936295,0.0,-0.1894107609987259,0.0,0.0,-0.1894107609987259,0.0,0.09470538049936295,0.0,-0.1894107609987259,-0.09470538049936295,0.0,-0.1894107609987259,0.0,-0.09470538049936295,-0.09470538049936295,0.0,-0.09470538049936295,-0.28411614894866943,-0.09470538049936295,-0.09470538049936295,0.0,-0.09470538049936295,0.0,0.1894107609987259,-0.1894107609987259,0.09470538049936295,-0.28411614894866943,0.28411614894866943,-0.09470538049936295,0.09470538049936295,-0.28411614894866943,0.3788215219974518,0.28411614894866943,-0.3788215219974518,-0.1894107609987259,-0.1894107609987259,-0.09470538049936295,0.0,-0.1894107609987259,0.28411614894866943,-0.1894107609987259,-0.1894107609987259,0.0,-0.28411614894866943,-0.28411614894866943,-0.09470538049936295,-0.09470538049936295,0.09470538049936295,-0.28411614894866943,-0.09470538049936295,0.47352689504623413,-0.09470538049936295,0.09470538049936295,0.0,-0.5682322978973389,0.28411614894866943,-0.09470538049936295,0.28411614894866943,0.09470538049936295,0.0,-0.1894107609987259,-0.1894107609987259,0.28411614894866943,-0.09470538049936295,0.09470538049936295,0.5682322978973389,-0.28411614894866943,-0.1894107609987259,-0.1894107609987259,0.0,-0.28411614894866943,-0.3788215219974518,0.09470538049936295,0.09470538049936295,0.3788215219974518,-0.09470538049936295,-0.1894107609987259,0.0,-0.1894107609987259,-0.09470538049936295,0.09470538049936295,0.3788215219974518,0.47352689504623413,0.09470538049936295,0.28411614894866943,-0.28411614894866943,0.0,0.0,-0.3788215219974518,0.0,-0.09470538049936295,-0.47352689504623413,0.1894107609987259,-0.47352689504623413,0.47352689504623413,-0.28411614894866943,0.09470538049936295,0.1894107609987259,0.1894107609987259,0.0,0.1894107609987259,-0.3788215219974518,0.0,-0.1894107609987259,0.3788215219974518,0.6629376411437988,-0.28411614894866943,0.3788215219974518,0.09470538049936295,0.09470538049936295,-0.47352689504623413,-0.47352689504623413,-0.3788215219974518,0.28411614894866943,-0.6629376411437988,-0.09470538049936295,-0.09470538049936295,0.09470538049936295,0.28411614894866943,-0.1894107609987259,0.3788215219974518,-0.1894107609987259,0.0,0.6629376411437988,0.5682322978973389,0.1894107609987259,-0.1894107609987259,0.0,0.3788215219974518,0.09470538049936295,0.0,-0.28411614894866943,0.3788215219974518,0.3788215219974518,0.0,0.1894107609987259,0.1894107609987259,-0.6629376411437988,0.0,0.28411614894866943,0.47352689504623413,-0.5682322978973389,0.5682322978973389,-0.3788215219974518,0.1894107609987259,-0.1894107609987259,0.6629376411437988,0.1894107609987259,-0.09470538049936295,-0.6629376411437988,-0.09470538049936295,0.09470538049936295,0.1894107609987259,0.1894107609987259,0.09470538049936295,-0.09470538049936295,-0.09470538049936295,0.1894107609987259,-0.1894107609987259,0.09470538049936295,0.6629376411437988,0.09470538049936295,0.3788215219974518,0.1894107609987259,0.0,0.5682322978973389,-0.09470538049936295,0.1894107609987259,-0.47352689504623413,0.1894107609987259,-0.09470538049936295,0.09470538049936295,0.1894107609987259,0.1894107609987259,0.3788215219974518,0.28411614894866943,-0.28411614894866943,0.1894107609987259,0.09470538049936295,0.28411614894866943,-0.28411614894866943,-0.1894107609987259,0.1894107609987259,-0.5682322978973389,0.6629376411437988,0.3788215219974518,-0.09470538049936295,-0.1894107609987259,0.0,0.6629376411437988,0.6629376411437988,-0.47352689504623413,-0.6629376411437988,0.1894107609987259,0.6629376411437988,0.47352689504623413,0.0,-0.3788215219974518,0.28411614894866943,-0.1894107609987259,-0.1894107609987259,0.0,0.1894107609987259,0.0,0.1894107609987259,0.5682322978973389,0.1894107609987259,0.1894107609987259,0.3788215219974518,0.0,-0.09470538049936295,0.3788215219974518,0.09470538049936295,0.28411614894866943,0.5682322978973389,-0.6629376411437988,0.09470538049936295,0.09470538049936295,-0.1894107609987259,0.1894107609987259,0.3788215219974518,0.5682322978973389,0.5682322978973389,0.09470538049936295,0.1894107609987259,0.09470538049936295,-0.1894107609987259,-0.1894107609987259,0.47352689504623413,-0.3788215219974518,0.3788215219974518,-0.09470538049936295,-0.09470538049936295,0.28411614894866943,-0.1894107609987259,0.28411614894866943,-0.09470538049936295,0.1894107609987259,-0.1894107609987259,-0.09470538049936295,0.1894107609987259,-0.28411614894866943,-0.47352689504623413,-0.1894107609987259,0.1894107609987259,0.3788215219974518,-0.28411614894866943,-0.1894107609987259,-0.6629376411437988,0.1894107609987259,0.3788215219974518,0.28411614894866943,-0.6629376411437988,-0.1894107609987259,-0.6629376411437988,0.6629376411437988,-0.09470538049936295,-0.5682322978973389,-0.28411614894866943,0.1894107609987259,0.0,0.09470538049936295,-0.1894107609987259,0.09470538049936295,-0.1894107609987259,-0.3788215219974518,0.1894107609987259,0.47352689504623413,-0.47352689504623413,0.0,0.0,0.47352689504623413,-0.28411614894866943,-0.28411614894866943,0.5682322978973389,0.1894107609987259,-0.1894107609987259,-0.47352689504623413,-0.09470538049936295,0.0,0.0,0.47352689504623413,0.09470538049936295,0.09470538049936295,0.0,-0.1894107609987259,0.28411614894866943,-0.6629376411437988,0.09470538049936295,-0.09470538049936295,0.28411614894866943,0.28411614894866943,-0.09470538049936295,-0.09470538049936295,-0.28411614894866943,-0.09470538049936295,0.0,0.6629376411437988,0.0,-0.1894107609987259,-0.3788215219974518,0.0,0.09470538049936295,0.1894107609987259,0.0,0.4940750002861023,0.32938334345817566,0.8234583735466003,0.4940750002861023,-0.6587666869163513,-0.16469167172908783,1.1528416872024536,0.32938334345817566,-0.16469167172908783,0.0,-0.32938334345817566,-0.32938334345817566,0.16469167172908783,0.9881500005722046,-0.32938334345817566,0.6587666869163513,1.1528416872024536,0.0,0.0,-0.16469167172908783,-0.4940750002861023,0.16469167172908783,0.0,0.4940750002861023,-0.32938334345817566,-0.32938334345817566,0.4940750002861023,0.8234583735466003,0.32938334345817566,-0.16469167172908783,-0.16469167172908783,0.16469167172908783,0.16469167172908783,-0.6587666869163513,-0.32938334345817566,-0.16469167172908783,0.32938334345817566,-0.6587666869163513,-0.6587666869163513,-0.16469167172908783,0.32938334345817566,0.4940750002861023,-0.6587666869163513,-0.16469167172908783,0.6587666869163513,0.32938334345817566,-0.8234583735466003,0.0,0.9881500005722046,-0.8234583735466003,-0.6587666869163513,0.4940750002861023,0.6587666869163513,-0.16469167172908783,0.0,1.1528416872024536,0.8234583735466003,0.6587666869163513,0.8234583735466003,0.9881500005722046,-0.16469167172908783,0.6587666869163513,-0.32938334345817566,0.0,-0.4940750002861023,-0.32938334345817566,0.0,-0.16469167172908783,-0.4940750002861023,-1.1528416872024536,0.16469167172908783,-0.8234583735466003,-0.8234583735466003,-0.4940750002861023,-0.32938334345817566,0.4940750002861023,-0.32938334345817566,0.0,-0.16469167172908783,0.32938334345817566,-0.9881500005722046,-0.8234583735466003,0.16469167172908783,-1.1528416872024536,0.32938334345817566,0.16469167172908783,0.6587666869163513,-0.8234583735466003,-0.8234583735466003,-0.32938334345817566,-0.9881500005722046,-0.16469167172908783,0.4940750002861023,-0.6587666869163513,0.9881500005722046,-0.32938334345817566,-0.4940750002861023,0.0,0.0,-1.1528416872024536,0.16469167172908783,-1.1528416872024536,-0.16469167172908783,-0.16469167172908783,0.0,-0.32938334345817566,-0.32938334345817566,0.0,-0.4940750002861023,-0.32938334345817566,-0.4940750002861023,0.0,-0.6587666869163513,-0.32938334345817566,-0.32938334345817566,-0.8234583735466003,0.4940750002861023,-0.32938334345817566,-1.1528416872024536,-0.4940750002861023,-0.32938334345817566,0.16469167172908783,-0.4940750002861023,-0.32938334345817566,-0.4940750002861023,-0.9881500005722046,-0.4940750002861023,-0.16469167172908783,-0.32938334345817566,0.32938334345817566,-0.32938334345817566,-0.32938334345817566,1.1528416872024536,0.16469167172908783,-0.4940750002861023,-0.32938334345817566,0.32938334345817566,0.16469167172908783,0.32938334345817566,-0.4940750002861023,-0.16469167172908783,0.32938334345817566,0.0,-0.4940750002861023,0.16469167172908783,0.6587666869163513,0.32938334345817566,0.16469167172908783,0.8234583735466003,0.6587666869163513,-0.16469167172908783,0.16469167172908783,-1.1528416872024536,-0.4940750002861023,-0.4940750002861023,0.0,0.6587666869163513,0.4940750002861023,0.0,-0.8234583735466003,-0.32938334345817566,-0.4940750002861023,0.6587666869163513,0.6587666869163513,0.16469167172908783,-1.1528416872024536,-0.16469167172908783,0.16469167172908783,0.16469167172908783,0.6587666869163513,-0.4940750002861023,0.32938334345817566,-0.32938334345817566,0.16469167172908783,0.16469167172908783,0.0,-0.16469167172908783,-0.8234583735466003,-0.16469167172908783,0.32938334345817566,0.4940750002861023,-1.1528416872024536,0.4940750002861023,1.1528416872024536,0.32938334345817566,0.8234583735466003,0.6587666869163513,0.32938334345817566,-0.8234583735466003,1.1528416872024536,-0.32938334345817566,0.8234583735466003,-0.4940750002861023,-0.16469167172908783,-0.16469167172908783,0.16469167172908783,0.32938334345817566,-0.16469167172908783,0.4940750002861023,-0.32938334345817566,-0.4940750002861023,-0.16469167172908783,-0.32938334345817566,0.0,0.0,0.4940750002861023,0.0,0.4940750002861023,0.4940750002861023,-0.4940750002861023,-0.32938334345817566,0.6587666869163513,0.0,-0.6587666869163513,0.16469167172908783,0.0,-0.16469167172908783,0.16469167172908783,-0.32938334345817566,-0.6587666869163513,-0.4940750002861023,0.4940750002861023,-0.32938334345817566,-0.4940750002861023,-0.8234583735466003,0.16469167172908783,0.0,0.6587666869163513,0.0,0.16469167172908783,0.16469167172908783,0.0,0.0,0.16469167172908783,-0.32938334345817566,-0.16469167172908783,-0.4940750002861023,0.32938334345817566,0.8234583735466003,0.0,0.16469167172908783,0.16469167172908783,-0.6587666869163513,0.6587666869163513,0.32938334345817566,0.0,0.6587666869163513,-0.16469167172908783,0.16469167172908783,-0.32938334345817566,0.4940750002861023,-1.1528416872024536,-0.6587666869163513,0.6587666869163513,-0.4940750002861023,-0.6587666869163513,0.16469167172908783,0.32938334345817566,0.4940750002861023,0.16469167172908783,-0.16469167172908783,0.32938334345817566,0.0,0.0,0.16469167172908783,0.32938334345817566,-0.4940750002861023,0.32938334345817566,0.0,0.16469167172908783,-0.16469167172908783,0.32938334345817566,0.16469167172908783,0.0,-0.32938334345817566,0.32938334345817566,0.9881500005722046,0.0,0.0,0.32938334345817566,0.9881500005722046,0.9881500005722046,0.8234583735466003,-0.16469167172908783,-0.16469167172908783,-0.32938334345817566,0.4940750002861023,-0.16469167172908783,-0.6587666869163513,-0.32938334345817566,0.4940750002861023,-0.6587666869163513,-0.4940750002861023,-0.16469167172908783,0.4940750002861023,-0.32938334345817566,-0.32938334345817566,-0.9881500005722046,-0.32938334345817566,0.0,0.16469167172908783,-0.6587666869163513,0.16469167172908783,0.0,-0.4940750002861023,0.0,-0.8234583735466003,-0.4940750002861023,-0.9881500005722046,0.16469167172908783,-0.8234583735466003,-1.1528416872024536,-0.4940750002861023,-1.1528416872024536,-0.32938334345817566,-0.4940750002861023,-0.8234583735466003,-0.16469167172908783,-0.4940750002861023,-0.4940750002861023,0.16469167172908783,0.0,0.0,0.32938334345817566,0.0,-0.16469167172908783,0.16469167172908783,-0.16469167172908783,0.6587666869163513,-0.6587666869163513,-0.32938334345817566,-0.6587666869163513,0.4940750002861023,-0.16469167172908783,0.6587666869163513,1.1528416872024536,0.0,-0.16469167172908783,-0.32938334345817566,0.0,-0.16469167172908783,0.0,-0.32938334345817566,-0.32938334345817566,-0.16469167172908783,-0.16469167172908783,-0.32938334345817566,-0.16469167172908783,0.9881500005722046,-0.6587666869163513,0.6587666869163513,-0.6587666869163513,0.9881500005722046,-0.16469167172908783,0.16469167172908783,0.6587666869163513,0.4940750002861023,-0.8234583735466003,0.16469167172908783,-0.16469167172908783,0.16469167172908783,1.1528416872024536,-0.16469167172908783,0.6587666869163513,-0.4940750002861023,-0.16469167172908783,-0.4940750002861023,0.16469167172908783,0.4940750002861023,0.16469167172908783,0.6587666869163513,0.6587666869163513,-0.16469167172908783,-0.4940750002861023,1.1528416872024536,0.16469167172908783,-0.16469167172908783,-0.6587666869163513,0.4940750002861023,0.0,0.32938334345817566,0.8234583735466003,0.6587666869163513,-0.16469167172908783,-0.16469167172908783,-0.16469167172908783,0.16469167172908783,-0.8234583735466003,-0.32938334345817566,-0.6587666869163513,0.9881500005722046,-0.16469167172908783,-0.8234583735466003,-0.16469167172908783,-0.16469167172908783,-0.6587666869163513,-0.32938334345817566,-0.8234583735466003,0.0,0.6587666869163513,-0.4940750002861023,-0.6587666869163513,-0.16469167172908783,-1.1528416872024536,0.4940750002861023,0.0,-0.16469167172908783,-0.6587666869163513,-0.16469167172908783,-0.32938334345817566,-0.8234583735466003,-0.4940750002861023,0.8234583735466003,-0.9881500005722046,0.6587666869163513,-0.8234583735466003,-0.16469167172908783,-0.16469167172908783,0.32938334345817566,0.16469167172908783,-0.32938334345817566,-0.32938334345817566,0.9881500005722046,-0.8234583735466003,-0.6587666869163513,0.16469167172908783,-0.16469167172908783,0.4940750002861023,0.6587666869163513,0.32938334345817566,-0.16469167172908783,-0.32938334345817566,0.16469167172908783,0.6587666869163513,0.32938334345817566,-0.6587666869163513,-0.32938334345817566,0.6587666869163513,-0.16469167172908783,-1.1528416872024536,-0.6587666869163513,-0.4940750002861023,-1.1528416872024536,0.4940750002861023,-0.32938334345817566,-0.9881500005722046,0.16469167172908783,-0.6587666869163513,-0.16469167172908783,0.32938334345817566,0.32938334345817566,0.4940750002861023,-0.6587666869163513,0.16469167172908783,-0.6587666869163513,0.4940750002861023,-0.6587666869163513,-0.4940750002861023,-0.4940750002861023,0.8234583735466003,0.0,0.6587666869163513,-0.16469167172908783,0.0,-0.16469167172908783,-0.16469167172908783,0.16469167172908783,0.32938334345817566,0.16469167172908783,0.32938334345817566,0.32938334345817566,0.0,0.16469167172908783,0.6587666869163513,0.9881500005722046,0.0,0.0,0.6587666869163513,0.0,0.16469167172908783,0.16469167172908783,-0.32938334345817566,0.16469167172908783,-0.16469167172908783,0.4940750002861023,0.32938334345817566,-0.4940750002861023,0.16469167172908783,0.16469167172908783,0.32938334345817566,0.8234583735466003,-0.32938334345817566,0.8234583735466003,0.16469167172908783,0.16469167172908783,0.0,0.0,0.6587666869163513,0.16469167172908783,-0.8234583735466003,-0.4940750002861023,0.0,-0.32938334345817566,-0.16469167172908783,0.0,-0.32938334345817566,0.8234583735466003,0.16469167172908783,0.0,-0.16469167172908783,0.0,0.6587666869163513,}
 #define GATE_BIAS {0.6461242437362671,0.8219645619392395,0.9691864252090454,0.47028395533561707,0.47028395533561707,0.9405679106712341,0.14722183346748352,0.6461242437362671,0.17584028840065002,0.6175057888031006,0.0,0.49890241026878357,0.6175057888031006,0.49890241026878357,-0.6461242437362671,-0.14722183346748352,2.085594654083252,-0.11860337853431702,0.49890241026878357,2.261435031890869,0.47028395533561707,0.14722183346748352,0.29444366693496704,1.2922484874725342,1.1164082288742065,0.47028395533561707,0.49890241026878357,1.2636300325393677,-0.17584028840065002,0.17584028840065002,-0.49890241026878357,0.6175057888031006,}
 #define CANDIDATE_WEIGHTS {0.09470538049936295,0.0,0.0,-0.09470538049936295,0.09470538049936295,-0.09470538049936295,0.0,0.0,0.09470538049936295,-0.09470538049936295,0.0,0.09470538049936295,0.09470538049936295,0.0,-0.09470538049936295,0.1894107609987259,0.1894107609987259,0.28411614894866943,0.0,0.0,0.1894107609987259,-0.1894107609987259,-0.28411614894866943,0.09470538049936295,0.28411614894866943,0.0,0.0,0.0,0.0,0.0,-0.09470538049936295,0.1894107609987259,-0.28411614894866943,-0.28411614894866943,-0.1894107609987259,-0.09470538049936295,-0.09470538049936295,-0.1894107609987259,0.0,0.1894107609987259,0.0,0.0,-0.09470538049936295,0.0,-0.28411614894866943,0.28411614894866943,0.09470538049936295,0.0,0.28411614894866943,0.1894107609987259,0.0,-0.09470538049936295,0.1894107609987259,0.09470538049936295,0.28411614894866943,-0.28411614894866943,-0.3788215219974518,0.09470538049936295,0.0,-0.3788215219974518,-0.28411614894866943,0.3788215219974518,-0.09470538049936295,0.09470538049936295,0.09470538049936295,0.1894107609987259,0.1894107609987259,0.09470538049936295,-0.3788215219974518,0.1894107609987259,-0.1894107609987259,-0.09470538049936295,0.0,-0.1894107609987259,0.0,-0.1894107609987259,0.47352689504623413,-0.47352689504623413,-0.09470538049936295,-0.1894107609987259,-0.09470538049936295,0.0,-0.09470538049936295,0.0,-0.28411614894866943,0.09470538049936295,0.09470538049936295,-0.09470538049936295,0.0,0.09470538049936295,-0.1894107609987259,-0.09470538049936295,0.1894107609987259,-0.09470538049936295,-0.28411614894866943,-0.09470538049936295,-0.09470538049936295,0.09470538049936295,0.1894107609987259,0.1894107609987259,0.0,0.28411614894866943,0.09470538049936295,-0.1894107609987259,-0.28411614894866943,-0.09470538049936295,-0.09470538049936295,0.1894107609987259,0.3788215219974518,0.28411614894866943,0.09470538049936295,0.09470538049936295,0.1894107609987259,0.0,0.3788215219974518,0.1894107609987259,0.09470538049936295,0.09470538049936295,-0.28411614894866943,0.0,0.47352689504623413,-0.09470538049936295,0.1894107609987259,0.3788215219974518,0.09470538049936295,-0.09470538049936295,-0.1894107609987259,0.0,-0.28411614894866943,-0.28411614894866943,0.0,0.0,-0.28411614894866943,0.0,-0.1894107609987259,0.1894107609987259,-0.28411614894866943,0.0,0.09470538049936295,0.28411614894866943,-0.09470538049936295,-0.09470538049936295,0.28411614894866943,-0.28411614894866943,-0.09470538049936295,-0.28411614894866943,-0.09470538049936295,0.1894107609987259,-0.1894107609987259,0.0,0.1894107609987259,0.3788215219974518,0.0,0.09470538049936295,-0.47352689504623413,0.0,-0.09470538049936295,0.09470538049936295,0.5682322978973389,0.0,0.0,0.17165914177894592,-0.17165914177894592,-1.2016140222549438,-0.6866365671157837,-0.34331828355789185,0.17165914177894592,-0.17165914177894592,0.34331828355789185,-0.17165914177894592,0.6866365671157837,-0.17165914177894592,-0.17165914177894592,1.2016140222549438,-0.17165914177894592,-0.8582956790924072,-0.8582956790924072,-0.6866365671157837,-0.34331828355789185,0.17165914177894592,-0.6866365671157837,-0.17165914177894592,0.34331828355789185,0.5149774551391602,1.0299549102783203,0.0,0.17165914177894592,-0.8582956790924072,-0.17165914177894592,-0.6866365671157837,-0.34331828355789185,-1.2016140222549438,0.0,0.34331828355789185,0.5149774551391602,-0.17165914177894592,0.6866365671157837,-0.8582956790924072,0.6866365671157837,0.5149774551391602,0.6866365671157837,-0.17165914177894592,0.5149774551391602,0.5149774551391602,0.8582956790924072,0.34331828355789185,0.17165914177894592,-0.34331828355789185,-0.5149774551391602,-0.5149774551391602,0.6866365671157837,0.5149774551391602,0.34331828355789185,-1.2016140222549438,-0.5149774551391602,0.34331828355789185,-0.17165914177894592,0.6866365671157837,0.17165914177894592,0.0,0.6866365671157837,0.17165914177894592,-0.8582956790924072,0.5149774551391602,-0.6866365671157837,0.17165914177894592,0.0,0.6866365671157837,0.5149774551391602,0.34331828355789185,0.0,-0.34331828355789185,0.6866365671157837,-1.0299549102783203,-0.8582956790924072,0.17165914177894592,0.17165914177894592,-0.34331828355789185,0.17165914177894592,-0.6866365671157837,0.17165914177894592,0.5149774551391602,-0.5149774551391602,-1.0299549102783203,-0.8582956790924072,0.0,0.8582956790924072,1.2016140222549438,-0.17165914177894592,0.6866365671157837,1.2016140222549438,-0.6866365671157837,-0.8582956790924072,-0.8582956790924072,0.6866365671157837,0.0,0.8582956790924072,0.6866365671157837,0.17165914177894592,-0.6866365671157837,0.6866365671157837,-0.5149774551391602,0.0,0.8582956790924072,0.17165914177894592,-0.8582956790924072,0.0,0.34331828355789185,0.34331828355789185,0.5149774551391602,0.0,-0.5149774551391602,-0.17165914177894592,-0.17165914177894592,0.17165914177894592,0.5149774551391602,0.0,0.17165914177894592,0.8582956790924072,0.34331828355789185,0.6866365671157837,0.5149774551391602,0.5149774551391602,0.17165914177894592,0.5149774551391602,-1.0299549102783203,0.5149774551391602,-1.0299549102783203,0.0,0.0,-1.0299549102783203,0.34331828355789185,-0.5149774551391602,0.5149774551391602,0.34331828355789185,0.17165914177894592,0.0,-0.34331828355789185,0.17165914177894592,0.17165914177894592,-0.34331828355789185,-0.34331828355789185,1.0299549102783203,-1.2016140222549438,0.5149774551391602,-1.2016140222549438,1.2016140222549438,-0.17165914177894592,0.8582956790924072,-1.2016140222549438,-0.17165914177894592,-0.5149774551391602,-0.34331828355789185,1.0299549102783203,0.8582956790924072,0.0,0.5149774551391602,0.17165914177894592,-0.5149774551391602,0.8582956790924072,-0.34331828355789185,-0.17165914177894592,-0.5149774551391602,-0.6866365671157837,-0.34331828355789185,-0.6866365671157837,0.8582956790924072,0.17165914177894592,0.17165914177894592,0.34331828355789185,0.8582956790924072,-0.34331828355789185,-0.17165914177894592,-0.17165914177894592,-0.17165914177894592,0.17165914177894592,0.34331828355789185,0.8582956790924072,-0.17165914177894592,-0.34331828355789185,-0.5149774551391602,0.5149774551391602,0.0,-1.0299549102783203,-0.34331828355789185,0.0,-1.0299549102783203,-0.5149774551391602,-0.5149774551391602,0.8582956790924072,-0.17165914177894592,-0.8582956790924072,-0.17165914177894592,0.0,-0.8582956790924072,-0.17165914177894592,0.34331828355789185,-0.34331828355789185,0.8582956790924072,0.8582956790924072,1.0299549102783203,0.6866365671157837,0.34331828355789185,0.5149774551391602,0.0,0.34331828355789185,-0.17165914177894592,-0.8582956790924072,0.34331828355789185,0.34331828355789185,0.6866365671157837,0.0,0.6866365671157837,-0.17165914177894592,-0.17165914177894592,0.17165914177894592,1.0299549102783203,-1.0299549102783203,-1.0299549102783203,0.5149774551391602,0.34331828355789185,0.17165914177894592,0.0,0.0,0.8582956790924072,0.34331828355789185,0.0,-0.8582956790924072,0.17165914177894592,0.17165914177894592,0.5149774551391602,-0.34331828355789185,0.0,0.0,0.5149774551391602,-0.17165914177894592,0.17165914177894592,0.6866365671157837,0.17165914177894592,-0.17165914177894592,-0.5149774551391602,0.5149774551391602,0.0,0.17165914177894592,-0.5149774551391602,0.5149774551391602,1.0299549102783203,0.5149774551391602,-0.5149774551391602,0.5149774551391602,0.34331828355789185,0.0,0.0,-0.6866365671157837,0.34331828355789185,0.5149774551391602,}
 #define CANDIDATE_BIAS {-0.3305661082267761,0.7222470045089722,0.6611322164535522,-0.9805681705474854,-0.3305661082267761,-0.14722183346748352,0.20833659172058105,-0.2333289086818695,-0.14722183346748352,-0.6000174283981323,-0.39168086647987366,-0.4527956247329712,-0.7472392916679382,-0.7222470045089722,0.8944611549377441,-0.24445903301239014,}
 #define LAST_WEIGHTS {-0.6641212701797485,0.9961819052696228,0.33206063508987427,-0.9961819052696228,0.33206063508987427,-0.9961819052696228,0.6641212701797485,0.0,0.33206063508987427,0.0,1.328242540359497,0.0,0.0,-0.33206063508987427,0.0,1.328242540359497,-0.9961819052696228,-0.9961819052696228,1.9923638105392456,-0.33206063508987427,-0.33206063508987427,0.33206063508987427,-0.9961819052696228,1.328242540359497,-0.6641212701797485,-0.6641212701797485,0.0,0.0,0.0,0.0,0.6641212701797485,0.33206063508987427,-0.33206063508987427,0.6641212701797485,-0.9961819052696228,0.0,0.33206063508987427,1.6603031158447266,-0.33206063508987427,-1.328242540359497,-2.3244245052337646,0.33206063508987427,1.6603031158447266,0.6641212701797485,-1.6603031158447266,2.3244245052337646,-0.9961819052696228,0.6641212701797485,-0.9961819052696228,-0.9961819052696228,1.9923638105392456,-0.9961819052696228,2.3244245052337646,-0.9961819052696228,-1.328242540359497,-0.9961819052696228,0.33206063508987427,-0.33206063508987427,-0.33206063508987427,1.328242540359497,0.9961819052696228,0.0,0.0,0.33206063508987427,-0.33206063508987427,-0.33206063508987427,0.9961819052696228,-0.9961819052696228,-0.6641212701797485,0.9961819052696228,0.33206063508987427,0.0,-0.33206063508987427,0.0,0.0,1.9923638105392456,-0.9961819052696228,-1.328242540359497,0.33206063508987427,1.328242540359497,}
 #define LAST_BIAS {0.39937251806259155,-0.29952937364578247,-0.49921566247940063,0.49921566247940063,0.19968625903129578,}
//#define IP1_WT {0.011649095453321934,0.004782326985150576,0.0037682659458369017,0.0023900342639535666,0.00013695812958758324,-0.01642758771777153,0.020692212507128716,-0.0006309180753305554,-0.002213302068412304,0.0008659828454256058,0.0007205830770544708,-0.04988143593072891,0.00033362588146701455,0.0028652960900217295,-0.025032123550772667,0.00722820358350873,-0.022591397166252136,-0.0929601863026619,-0.04305652156472206,0.0006335670477710664,-0.05454104393720627,0.09882330894470215,-0.04638831689953804,-0.14978253841400146,0.038604140281677246,-0.06124062463641167,-0.01057055126875639,-0.07201483845710754,-0.09042385965585709,-0.14824645221233368,-0.02835216000676155,-0.00021726801060140133,0.02815183252096176,-0.1997738778591156,-0.003784668166190386,0.147685244679451,0.08963232487440109,0.1657550036907196,-0.12143906205892563,-0.05167042091488838,-0.0712243914604187,-0.0016763501334935427,-0.062305618077516556,-0.012141144834458828,-0.12106824666261673,-0.021865488961338997,0.14906586706638336,0.24231189489364624,-0.04323253780603409,0.0009208361734636128,0.03388981893658638,-0.06972011178731918,-0.10017156600952148,-0.013109134510159492,-0.15746036171913147,0.004866928327828646,-0.04861372709274292,0.041573140770196915,0.12491907179355621,0.032060928642749786,-0.04567459225654602,0.027364660054445267,0.07240751385688782,0.11154583096504211,-0.15291976928710938,0.1679839789867401,0.007338448893278837,-0.11332225799560547,-0.03698248416185379,-0.17565315961837769,0.16424420475959778,0.009532026015222073,0.10913849622011185,0.02627595141530037,0.06160174682736397,0.20321141183376312,0.11342895030975342,0.04305670037865639,-0.07800032943487167,-0.10730275511741638,-0.03940999507904053,0.15731945633888245,-0.02850407175719738,-0.0646558403968811,-0.02241644077003002,-0.1234666183590889,0.0788140594959259,0.09932804107666016,0.05475372076034546,0.023920416831970215,0.04003177210688591,0.1145329549908638,0.05815606936812401,-0.06868690997362137,-0.03131255507469177,-0.06070294231176376,-0.0818062424659729,0.18622024357318878,-0.012089582160115242,-0.05387754365801811,-0.042886294424533844,-0.17140421271324158,-0.033630382269620895,0.12744414806365967,0.04444856196641922,0.010943337343633175,-0.014622493647038937,0.14533236622810364,0.02060302346944809,-0.05157070979475975,-0.05787549540400505,0.05023492872714996,-0.06670043617486954,0.06965629011392593,0.09479165822267532,-0.05132656544446945,0.11789391189813614,0.031426940113306046,0.046479929238557816,0.014594963751733303,-0.05930611863732338,0.04322027787566185,0.0670442283153534,0.001765710418112576,0.02548883482813835,0.024812305346131325,-0.08008940517902374,-0.10664115846157074,-0.03929584100842476,0.15887485444545746,-0.012837473303079605,-0.10442452132701874,-0.04749663546681404,-0.09958170354366302,-0.10518015921115875,0.09336430579423904,0.05619930475950241,0.1297985166311264,0.10350576788187027,0.1072109192609787,-0.07135104387998581,0.0007441681809723377,-0.002544797956943512,0.06525614112615585,0.0045977141708135605,0.021969584748148918,0.18108636140823364,-0.022990072146058083,0.13028016686439514,-0.1692756861448288,-0.039255425333976746,0.010533279739320278,0.08808939903974533,0.14479203522205353,-0.0293724462389946,0.026221435517072678,-0.0220294538885355,-0.13598525524139404,0.04467065632343292,0.14139993488788605,0.0014775593299418688,-0.04654427990317345,0.010632719844579697,-0.006733508314937353,-0.0029167316388338804,0.0255002211779356,0.014983158558607101,0.008816887624561787,0.007816782221198082,-0.02610524743795395,-0.0009036484407261014,-0.03507581353187561,-0.001653940649703145,-0.0017171890940517187,-0.06739974021911621,-0.008955307304859161,-0.0073749711737036705,-0.08665065467357635,-0.01555434986948967,-0.031611137092113495,-0.09742525219917297,0.10663115978240967,0.006643063388764858,-0.18679983913898468,-0.0075368634425103664,-0.15240514278411865,0.030298644676804543,-0.07070751488208771,-0.04391201213002205,-0.05235983803868294,-0.02968377247452736,-0.05223780870437622,0.017449110746383667,-0.24095268547534943,0.0013085042592138052,0.065149687230587,0.10504508018493652,0.12019731104373932,-0.08826751261949539,-0.009210505522787571,-0.03281620517373085,-0.021945616230368614,-0.1605469435453415,0.0722871646285057,-0.11512722820043564,-0.006513615138828754,0.1410345435142517,0.22134099900722504,0.0011915345676243305,0.008558451198041439,0.07533862441778183,-0.0016598707297816873,-0.0651220977306366,0.022418741136789322,-0.1332409530878067,-0.005701415706425905,-0.13801084458827972,0.10609637200832367,0.0033992293756455183,0.14142927527427673,-0.12817631661891937,0.020170999690890312,0.058984894305467606,0.21283090114593506,-0.17606417834758759,0.20353110134601593,-0.07168321311473846,-0.1570766121149063,-0.06705901026725769,-0.18396957218647003,0.12181200832128525,0.0445999912917614,0.12159629911184311,-0.02687453106045723,0.028184371069073677,0.20815378427505493,0.13145196437835693,0.004330926574766636,-0.15787190198898315,-0.11020464450120926,0.030477508902549744,0.14403051137924194,-0.011800972744822502,-0.06278501451015472,-0.011508744210004807,-0.07176374644041061,0.029641825705766678,0.10270736366510391,0.051998626440763474,-0.029757916927337646,0.08729228377342224,0.13993971049785614,0.004412663169205189,-0.040838561952114105,-0.057769276201725006,-0.01330516580492258,-0.04335719719529152,0.15519094467163086,-0.05922183766961098,-0.07557335495948792,-0.0901760682463646,-0.07677864283323288,-0.021613452583551407,0.15603475272655487,0.07542994618415833,0.07393346726894379,0.006008755881339312,0.144266739487648,-0.005899537820369005,-0.059495147317647934,-0.08395540714263916,0.06252126395702362,-0.02359672077000141,0.12151572853326797,0.09095065295696259,-0.05332624167203903,-0.009313859976828098,0.03790687397122383,0.03569170460104942,0.09504938125610352,-0.027727672830224037,0.008473491296172142,0.03600289300084114,0.03222515806555748,0.06281552463769913,-0.010535398498177528,-0.028084419667720795,-0.07450345158576965,-0.05189964920282364,0.16425105929374695,-0.00823733676224947,-0.09877736121416092,0.006479738280177116,-0.1632441282272339,-0.027664044871926308,0.10132978111505508,0.06538393348455429,0.004421839490532875,0.03119652345776558,0.19937099516391754,0.03933378681540489,-0.037595927715301514,-0.012063591741025448,0.0035530005116015673,-0.019717570394277573,0.010016660206019878,0.06850408017635345,-0.03944497928023338,0.1323973834514618,-0.13792727887630463,-0.07239575684070587,0.035055793821811676,0.064722441136837,0.10606961697340012,0.0005521150305867195,0.09383776783943176,-0.0401279591023922,-0.07884811609983444,0.11405546218156815,0.09847498685121536,0.08516090363264084,-0.09546016901731491,0.027885623276233673,0.02720007486641407,0.010727575048804283,0.005601618438959122,0.07290372997522354,-0.030488384887576103,-0.010767281986773014,-0.05047043785452843,-0.06966791301965714,-0.05604661628603935,0.02677549049258232,0.0020328285172581673,-0.039687469601631165,-0.09006396681070328,-0.010663719847798347,-0.08215165883302689,-0.0020857162307947874,-0.005820519290864468,-0.009277177043259144,0.13950462639331818,0.019282666966319084,-0.25119876861572266,0.01705450378358364,-0.06620189547538757,-0.08910243958234787,0.004600598011165857,-0.015471632592380047,-0.043950870633125305,-0.04630659520626068,-0.1527538299560547,-0.05995247885584831,-0.23883725702762604,-0.09801938384771347,0.19031740725040436,0.1458757221698761,0.09053006023168564,-0.023817408829927444,0.009960153140127659,-0.08866484463214874,-0.04076962545514107,-0.2058362066745758,0.029962902888655663,-0.04736611992120743,-0.0005403805407695472,0.11071795970201492,0.2055591493844986,0.027666976675391197,-0.002497646491974592,-6.6337302087049466e-06,0.010723654180765152,-0.0871967151761055,0.04744967073202133,-0.19051289558410645,-0.007950562983751297,-0.19185414910316467,0.022973639890551567,0.028358303010463715,0.10485022515058517,-0.11694330722093582,-0.045138586312532425,0.009776165708899498,0.15302878618240356,-0.10163233429193497,0.20764793455600739,-0.022184614092111588,-0.14881084859371185,-0.12875939905643463,-0.2258514165878296,0.0468779094517231,0.016542701050639153,0.07905061542987823,-0.03950705751776695,0.14569896459579468,0.14336425065994263,0.14522096514701843,0.06756006181240082,-0.07952462136745453,-0.06138715147972107,0.03762948513031006,0.12877807021141052,-0.013198652304708958,-0.14279796183109283,0.027192631736397743,-0.12168849259614944,-0.006360339000821114,0.06592771410942078,-0.00222579063847661,0.059605922549963,0.04305128753185272,0.09415111690759659,0.05230331048369408,-0.03025815263390541,-0.06414268910884857,-0.018936999142169952,0.0612565316259861,0.13764478266239166,-0.08704116195440292,-0.09667081385850906,-0.060120321810245514,-0.09929496049880981,-0.06780614703893661,0.18101370334625244,0.09402132034301758,0.04967011511325836,0.006938048638403416,0.05163465440273285,0.015830419957637787,-0.0486849844455719,0.02231602743268013,0.09335240721702576,0.01576227881014347,0.11762478947639465,0.03788099065423012,-0.07757097482681274,-0.05338679626584053,-0.05419435352087021,0.020980503410100937,0.04336080700159073,-0.12663157284259796,-0.02199161984026432,0.010029440745711327,-0.004007044713944197,0.0849316343665123,0.01948178932070732,-0.025512199848890305,-0.04030219465494156,-0.0049547175876796246,0.16216027736663818,-0.013526800088584423,-0.15367770195007324,-0.025021813809871674,-0.17278334498405457,-0.07474087178707123,0.11873624473810196,0.1139112263917923,0.018546242266893387,0.029585856944322586,0.13212788105010986,0.08176509290933609,-0.08155377954244614,-0.0636824294924736,-0.005003476515412331,0.05212933570146561,-0.06822098791599274,0.07414711266756058,-0.005486832931637764,0.026280580088496208,-0.10581675916910172,-0.09427046775817871,-0.00247587775811553,0.1405312716960907,-0.01856165938079357,-0.06153620406985283,0.08633396029472351,-0.03855033218860626,-0.13598327338695526,0.019991599023342133,0.09419697523117065,-0.005363451316952705,-0.07688208669424057,-0.033096279948949814,-0.019577903673052788,-0.020742684602737427,0.05497206002473831,0.017802679911255836,0.002860359149053693,-0.03490607440471649,-0.03012927994132042,-0.05521664768457413,-0.015266676433384418,0.0027792747132480145,-0.025447798892855644,-0.06624821573495865,-0.07830554991960526,-0.10119739919900894,0.018089864403009415,-0.03884197026491165,0.04203402251005173,-0.030882710590958595,0.14975370466709137,0.05767868831753731,-0.2323359102010727,0.0065515311434865,9.20867605600506e-05,-0.010843528434634209,0.03204992786049843,0.004253103397786617,0.005174949299544096,0.01611342653632164,-0.08636386692523956,-0.14892810583114624,-0.13981394469738007,-0.08545663207769394,0.16701360046863556,0.1305244415998459,0.10354893654584885,0.036107566207647324,0.026010053232312202,-0.08930108696222305,-0.10862164944410324,-0.056949272751808167,0.020383795723319054,-0.08216576278209686,-0.06841959804296494,0.04921785369515419,0.1797141432762146,-0.03941217437386513,0.06234230101108551,0.07923401147127151,0.0006743606645613909,-0.039656173437833786,0.03126320615410805,-0.2121434062719345,-0.033653780817985535,-0.17153583467006683,-0.011966145597398281,-0.0473380945622921,0.09777135401964188,-0.1531340628862381,-0.06216593459248543,0.04314030334353447,0.1649141013622284,-0.0009826794266700745,0.17089174687862396,-0.022066831588745117,-0.18327388167381287,-0.1883869618177414,-0.08795466274023056,0.06287652999162674,-0.007435922976583242,0.031977515667676926,-0.03891970217227936,0.16886776685714722,0.12974269688129425,0.058072153478860855,0.09901014715433121,-0.03188686445355415,0.02230343222618103,0.09533677995204926,0.0858343243598938,0.06432286649942398,-0.1887931227684021,0.05840935558080673,-0.09660875797271729,0.10095901042222977,0.05359908565878868,0.08642745763063431,0.014118905179202557,0.061421431601047516,0.1281544268131256,0.08071044087409973,-0.0977795422077179,-0.018294386565685272,0.04980107769370079,0.04995095729827881,0.05696092173457146,-0.07478658854961395,-4.178570816293359e-05,-0.0907050296664238,-0.1154848262667656,-0.009428603574633598,0.18264420330524445,0.09335848689079285,0.022123657166957855,-0.06762070208787918,0.12614716589450836,-0.05820559710264206,-0.08264926820993423,-0.025066424161195755,0.0897284671664238,0.061567313969135284,0.04959237948060036,0.07480020821094513,-0.08931512385606766,-0.07060883194208145,-0.02199879288673401,0.024433577433228493,0.06495556980371475,-0.1255590170621872,-0.07744281738996506,0.03362307325005531,0.03831464797258377,-0.007761283311992884,0.024795496836304665,-0.008313033729791641,-0.03807501122355461,0.02945295348763466,0.15458142757415771,-0.025763537734746933,-0.177664652466774,-0.00946374423801899,-0.18553611636161804,0.04902204871177673,0.12687453627586365,0.03681635484099388,0.04267144948244095,0.03220858797430992,0.123104989528656,0.09139551222324371,-0.06784005463123322,-0.01492837443947792,0.02094588801264763,0.11431995779275894,-0.020024750381708145,0.0359053760766983,0.06602896004915237,-0.0004113605828024447,-0.10876259207725525,-0.15133176743984222,0.06371577084064484,0.11510046571493149,-0.06284506618976593,-0.010292663238942623,0.11881423741579056,-0.07276011258363724,-0.19343538582324982,-0.051272906363010406,0.13732783496379852,0.010399401187896729,-0.00595542648807168,0.02784133516252041,0.07898397743701935,0.05872052535414696,-0.00019865078502334654,-0.0022835249546915293,-0.033801812678575516,0.040678612887859344,-0.0680420771241188,-0.015910161659121513,0.016014153137803078,0.05691034719347954,0.06103017181158066,0.01526450365781784,-0.044399164617061615,-0.032457079738378525,-0.03026570752263069,-0.012440193444490433,0.03427537903189659,-0.0005262307822704315,0.18237802386283875,-0.016270821914076805,-0.1451437771320343,0.013678597286343575,-0.05891060456633568,0.030126307159662247,-0.05827666446566582,0.04938627779483795,0.07479899376630783,0.015892470255494118,-0.1467408984899521,-0.22677099704742432,-0.07061345875263214,-0.07519306987524033,0.16808579862117767,0.1620032787322998,0.10187619179487228,0.0979698896408081,0.038502734154462814,-0.1386011242866516,-0.14441129565238953,0.0363687239587307,-0.07009240984916687,-0.05509017035365105,-0.07721272110939026,0.04509442299604416,0.019673727452754974,-0.02255875989794731,0.03693824261426926,0.06588278710842133,0.03193829953670502,0.01811097003519535,-0.00713920034468174,-0.027832860127091408,-0.019350793212652206,-0.2319311499595642,0.03299092873930931,-0.08911637216806412,0.05535813048481941,-0.10863596946001053,-0.05322436988353729,0.06376813352108002,0.0677342340350151,0.045542504638433456,0.1466679722070694,-0.03548046573996544,-0.2672223150730133,-0.1427888721227646,-0.10736730694770813,-0.03657199814915657,0.04892721772193909,-0.029560018330812454,0.019309429451823235,0.08737442642450333,0.09639735519886017,0.027535533532500267,0.062362056225538254,-0.043207474052906036,0.06622221320867538,0.10632555186748505,0.08461093157529831,0.10474365204572678,-0.11757853627204895,0.02108144387602806,-0.0674978494644165,0.05941227078437805,0.07241960614919662,0.05904587730765343,0.08951392024755478,-0.04145240783691406,0.06375151872634888,0.03606879338622093,-0.0752006471157074,0.05611170083284378,0.06658447533845901,0.1683070808649063,-0.036143526434898376,0.030446140095591545,-0.013056255877017975,0.024306442588567734,-0.08877705782651901,-0.03275890648365021,0.1469855010509491,0.08994494378566742,-0.01362426858395338,-0.11687558889389038,0.11151840537786484,-0.12947963178157806,-0.14967624843120575,0.03900687396526337,0.10424070060253143,0.04292207583785057,0.099708192050457,0.092235267162323,-0.034718286246061325,-0.020904062315821648,-0.01272659096866846,0.03929292410612106,0.10623937100172043,-0.08203856647014618,-0.05858149379491806,-0.05506034940481186,0.06552426517009735,0.048328932374715805,0.01726020872592926,-0.007867321372032166,0.001211145892739296,0.07047710567712784,0.0493750274181366,0.08518804609775543,-0.1513899266719818,-0.02665194496512413,-0.22719751298427582,0.06617872416973114,0.12943197786808014,0.023696407675743103,0.007057052105665207,0.03540661931037903,0.1546584963798523,0.04590297490358353,-0.11585910618305206,-0.025510620325803757,0.005058626644313335,0.008683389984071255,-0.024783803150057793,-0.003304071491584182,0.03302327170968056,0.06594708561897278,-0.10995344817638397,-0.1486700177192688,0.021632738411426544,0.14676284790039062,-0.1215791329741478,0.029655247926712036,0.10067915916442871,-0.1520352065563202,-0.1673397719860077,-0.007846460677683353,0.04607255384325981,0.008502783253788948,-0.026087449863553047,0.028636246919631958,0.06307676434516907,0.027295883744955063,0.053244367241859436,-0.08546644449234009,0.002838707296177745,0.05708828568458557,-0.06696096062660217,0.010786468163132668,-0.0805124044418335,0.029508881270885468,0.08567522466182709,-0.04094209894537926,-0.007951511070132256,-0.07059609144926071,0.023285837844014168,0.018271951004862785,-0.029768088832497597,0.030581297352910042,0.15335208177566528,-0.04494096338748932,-0.11651874333620071,-0.06645912677049637,0.050971049815416336,-0.05252453312277794,0.021150672808289528,0.03293817117810249,0.07911181449890137,-0.01397718209773302,-0.069561667740345,-0.15879712998867035,-0.003934645093977451,-0.0620245598256588,0.2027721256017685,0.011091326363384724,0.08937366306781769,0.1432008594274521,-0.0020507799927145243,-0.21809343993663788,-0.08046679943799973,0.094025157392025,-0.14228978753089905,0.04459020867943764,-0.049453672021627426,0.018420593813061714,-0.09284926950931549,-0.14906461536884308,0.10605154186487198,0.08524525910615921,0.027109168469905853,-0.01345963403582573,-0.045068610459566116,0.005007942207157612,0.031155388802289963,-0.19189374148845673,-0.04574432596564293,-0.1549435257911682,0.051524657756090164,-0.09021317213773727,-0.07460425049066544,0.10734827816486359,-0.04850661754608154,0.1785939335823059,0.013428688049316406,0.026837550103664398,-0.18658381700515747,-0.21170778572559357,-0.11998017877340317,-0.0385272279381752,-0.03997077792882919,-0.07423520088195801,0.0316903330385685,-0.032059915363788605,0.1510443240404129,0.049203041940927505,0.0791429802775383,-0.04464007541537285,0.1520216464996338,0.12554152309894562,-0.00968572311103344,0.09437526017427444,-0.12286467105150223,0.013626931235194206,-0.1534784883260727,0.10190399736166,0.08316462486982346,0.07325345277786255,0.05302804335951805,0.01570962555706501,0.0232376791536808,-0.00948998611420393,-0.025665679946541786,-0.013449599966406822,0.10055799037218094,0.10377437621355057,0.024832354858517647,-0.02408236637711525,-0.003422174835577607,0.10342762619256973,-0.07195144146680832,0.09466946125030518,0.16191034018993378,0.11129123717546463,0.03579523041844368,-0.1012432649731636,0.1495901197195053,-0.16183020174503326,-0.15067970752716064,0.05050728842616081,0.08327997475862503,0.08541373908519745,-0.004149249754846096,0.04234886169433594,-0.09917566180229187,-0.0319729782640934,-0.07017776370048523,0.031129542738199234,0.115934357047081,-0.1227790042757988,0.034326132386922836,-0.03181156888604164,0.10576783120632172,0.0020957915112376213,0.021272290498018265,-0.025377392768859863,-0.059346772730350494,0.06366828829050064,-0.021081874147057533,0.02811405435204506,-0.17844344675540924,0.011398992501199245,-0.10153865069150925,0.0746379941701889,0.11121340095996857,0.03968532383441925,-0.06273683905601501,0.07230191677808762,0.13262736797332764,0.02058323659002781,-0.11446301639080048,-0.04686233773827553,0.02247684635221958,0.060532089322805405,-0.02144877053797245,-0.020521603524684906,0.0923876240849495,-0.025751931592822075,-0.14057934284210205,-0.044545773416757584,0.029552724212408066,0.14654900133609772,-0.11448538303375244,0.04555661976337433,-0.04514075443148613,-0.08825495094060898,-0.2501065135002136,-0.04845357686281204,-0.011863753199577332,-0.041926123201847076,-0.001930851023644209,-0.024744823575019836,0.07334446161985397,0.0878521054983139,0.025883134454488754,-0.12001194804906845,-0.005601565353572369,0.08718878030776978,-0.013382785022258759,0.007933424785733223,-0.07303255796432495,0.07943475246429443,0.050607919692993164,-0.06353690475225449,0.022915871813893318,-0.08585815131664276,0.08154968172311783,0.029757067561149597,0.000769435428082943,0.04979895055294037,0.13528452813625336,-0.09919782727956772,-0.06900854408740997,-0.07153920829296112,0.027685709297657013,-0.02932634949684143,0.003921103663742542,0.13662704825401306,0.08510211110115051,-0.022076157853007317,0.00955141056329012,-0.14899712800979614,0.106550432741642,-0.027940427884459496,0.14506568014621735,-0.026234665885567665,0.15564212203025818,0.05141804739832878,0.05134162679314613,-0.12004037201404572,-0.048422377556562424,0.11831216514110565,-0.17328611016273499,0.11558213829994202,-0.13575229048728943,0.06753765046596527,-0.03407291695475578,-0.15247125923633575,0.1126255914568901,0.1688455045223236,0.017087697982788086,0.13103307783603668,-0.043704431504011154,0.050804201513528824,0.044051941484212875,-0.12059636414051056,-0.07637980580329895,-0.13300709426403046,-0.031120290979743004,-0.024094928056001663,-0.0882127583026886,0.07019457221031189,-0.14640329778194427,0.23243054747581482,-0.05898118019104004,0.08157650381326675,-0.22699251770973206,-0.16105295717716217,-0.06878121197223663,0.055428702384233475,-0.031674835830926895,-0.09635909646749496,0.05575602501630783,-0.05912027880549431,0.11718899011611938,-0.0157789159566164,0.08182237297296524,-0.02215370163321495,0.09574788808822632,0.17324042320251465,-0.11072415858507156,0.073642298579216,-0.12040935456752777,0.06952843070030212,-0.1256922483444214,0.018733568489551544,0.04692496359348297,0.024317990988492966,-0.004112873692065477,-0.016869056969881058,0.047404076904058456,-0.008964971639215946,-0.023246921598911285,-0.008714188821613789,0.12971173226833344,0.10088321566581726,-0.07674524188041687,0.07018053531646729,-0.020709797739982605,0.20245273411273956,-0.02552119828760624,0.0808049812912941,0.09409312158823013,0.17701129615306854,-0.007100666873157024,-0.11907830089330673,0.05568889528512955,-0.22565539181232452,-0.11036518961191177,-0.004985709674656391,0.09057912230491638,0.10488901287317276,0.03450969234108925,0.06546991318464279,-0.11098679155111313,0.013082765974104404,-0.08820031583309174,0.04515748843550682,0.06645370274782181,-0.04415612667798996,-0.0015739029040560126,-0.06335847824811935,0.11469896882772446,0.02554955892264843,-0.004585270304232836,0.024014534428715706,-0.0009571710834279656,0.0832056850194931,-0.06880239397287369,-0.0006638475460931659,-0.14775188267230988,-0.016488878056406975,-0.13198153674602509,0.007275412790477276,0.04912729933857918,-0.00946718268096447,-0.03602641448378563,0.030349044129252434,0.10925168544054031,0.04662848636507988,-0.09657047688961029,-0.04208676517009735,0.0028921635821461678,-0.0017651468515396118,-0.033467505127191544,-0.1268468201160431,0.08341846615076065,-0.030704021453857422,-0.13067147135734558,0.008261228911578655,-0.02135244943201542,0.14596791565418243,-0.2040008008480072,0.10532071441411972,0.04668724164366722,-0.18167930841445923,-0.1807355284690857,-0.09459143131971359,-0.0583920031785965,-0.05226660892367363,-0.02311251126229763,-0.022325005382299423,0.03559739142656326,0.05504022538661957,0.07532501220703125,-0.098341204226017,-0.010244397446513176,0.043277937918901443,0.0036106116604059935,0.006351975258439779,-0.01743897795677185,0.016990015283226967,0.12696129083633423,-0.016226517036557198,-0.031708452850580215,-0.059690482914447784,0.023325923830270767,0.032948337495326996,-0.007270576432347298,-0.010438624769449234,0.17785218358039856,-0.10128449648618698,0.009237855672836304,-0.019311193376779556,0.048788294196128845,0.047635819762945175,-0.01675495132803917,0.11287730932235718,0.08652162551879883,-0.020091939717531204,-0.008215358480811119,-0.14535431563854218,0.1320185363292694,-0.06384838372468948,0.11568860709667206,-0.08338819444179535,0.17375952005386353,0.007001398131251335,0.035520099103450775,-0.08848755061626434,-0.06253453344106674,0.0791049674153328,-0.20133286714553833,0.09515053778886795,-0.08646286278963089,0.05864832177758217,-0.1275024563074112,-0.08468340337276459,0.14209780097007751,0.1030755266547203,-0.029118387028574944,0.1200321689248085,-0.0461883619427681,-0.054071273654699326,0.19320595264434814,-0.025972314178943634,-0.05669891834259033,-0.11703857779502869,-0.03538823500275612,-0.02524353377521038,-0.09400351345539093,0.1263704001903534,-0.138050377368927,0.1906052529811859,-0.07729016244411469,0.016899768263101578,-0.2232809215784073,-0.01647978089749813,-0.03899797797203064,0.0723692998290062,-0.1005086675286293,-0.11189397424459457,0.047462161630392075,-0.16460132598876953,0.07470325380563736,-0.05891513079404831,0.04343092441558838,0.04674975946545601,0.0744728222489357,0.1527664065361023,-0.1736213117837906,0.008260777220129967,-0.12682440876960754,0.02885773405432701,-0.11314626038074493,0.03627471625804901,0.05511743947863579,-0.03915759176015854,0.09872163832187653,-0.018023084849119186,0.08016841113567352,-0.11696086823940277,0.04049190878868103,-0.006640396546572447,0.10554182529449463,0.03222532197833061,-0.07916499674320221,0.00613298499956727,0.014854613691568375,0.2500704526901245,-0.06791377067565918,0.044577859342098236,0.039047226309776306,0.11295454949140549,0.008474135771393776,-0.045425500720739365,0.15267837047576904,-0.19122640788555145,-0.10866566747426987,0.013210348784923553,0.03796077519655228,0.02465076930820942,-0.029034147039055824,0.04303693771362305,-0.06742056459188461,0.15479391813278198,-0.03544963151216507,0.07936619967222214,-0.022387756034731865,-0.0795983225107193,0.06272076815366745,-0.11085911840200424,0.04233696684241295,0.02511298470199108,-0.021103672683238983,-0.010508038103580475,0.041184574365615845,0.11395640671253204,-0.12713144719600677,0.013573436997830868,-0.04455675929784775,-0.06631924957036972,-0.1899505853652954,0.0023069081362336874,0.033870525658130646,0.00040126265957951546,-0.05610058456659317,0.003285028040409088,-0.02141401544213295,0.03700927272439003,-0.029234305024147034,-0.06699428707361221,-0.01594430021941662,0.04314430430531502,-0.056486815214157104,-0.10811358690261841,0.05810313671827316,-0.046957291662693024,-0.08261562138795853,-0.050181884318590164,-0.007187607232481241,0.03859865665435791,-0.1527724415063858,0.1284889429807663,0.0030027562752366066,-0.11748531460762024,-0.246238112449646,-0.06435532122850418,-0.03714634105563164,-0.03994929417967796,0.05004096403717995,-0.05503059923648834,0.08396827429533005,0.05209439620375633,0.022429341450333595,0.05622636899352074,-0.015801426023244858,0.10153239220380783,-0.021179940551519394,0.007494318298995495,-0.056760624051094055,0.011930398643016815,0.0520600788295269,0.05985494703054428,-0.031147398054599762,-0.031001286581158638,-0.005036355461925268,0.03803449869155884,-0.013945472426712513,-0.09010258316993713,0.11662758141756058,-0.04539182037115097,-0.002584315137937665,-0.11605606228113174,0.03816725313663483,0.03453311324119568,-0.013710645958781242,-0.023674823343753815,0.1632421463727951,0.010281462222337723,-0.05490728095173836,-0.049898818135261536,0.0944763571023941,0.005363978911191225,-0.05794258043169975,-0.11108516901731491,0.11009453982114792,-0.09300395846366882,0.152235209941864,-0.07553501427173615,-0.06950989365577698,0.1802283227443695,-0.13838742673397064,0.15283237397670746,-0.10590381175279617,-0.07898010313510895,-0.1479128748178482,-0.07095447182655334,0.15868699550628662,0.16544009745121002,0.035682421177625656,0.11196024715900421,-0.10254525393247604,-0.13601872324943542,0.21475975215435028,0.0014446070417761803,-0.08948386460542679,-0.03832539543509483,-0.12277427315711975,0.11253681033849716,-0.14504298567771912,0.010423230938613415,-0.06263521313667297,0.2613733112812042,-0.16520464420318604,0.13367228209972382,-0.24393725395202637,0.12008676677942276,-0.1257084757089615,-0.018872488290071487,-0.10886070877313614,-0.1403125673532486,0.03553884103894234,-0.22740976512432098,0.11486638337373734,-0.15405870974063873,0.09716428816318512,0.08343932777643204,0.10223057121038437,0.16525650024414062,-0.09772045165300369,-0.03675629198551178,-0.005742788780480623,0.06424311548471451,-0.15979601442813873,-0.02354312874376774,0.0039063808508217335,-0.041008662432432175,0.028709420934319496,0.007093091960996389,0.06284411251544952,-0.0524681881070137,0.07975557446479797,0.09317367523908615,0.14680133759975433,0.051443081349134445,-0.08871348947286606,-0.022766530513763428,0.16339875757694244,0.31451156735420227,-0.07053772360086441,0.07754256576299667,-0.021815260872244835,0.0807393416762352,-0.023364808410406113,-0.049990247935056686,0.18438738584518433,-0.20524419844150543,-0.12069129943847656,-0.03894658759236336,0.1026015356183052,0.07372654229402542,-0.008383169770240784,0.0202313382178545,-0.028644215315580368,0.09770646691322327,-0.09719336777925491,0.12957729399204254,0.009611411951482296,-0.09448446333408356,0.048653021454811096,-0.03969390690326691,0.024336615577340126,0.05799831449985504,0.07091325521469116,0.11965812742710114,-0.019358830526471138,0.12306393682956696,-0.1364811658859253,0.029188424348831177,0.016976412385702133,0.016996344551444054,-0.17197410762310028,-0.06774712353944778,-0.11105737835168839,0.027912776917219162,-0.025718946009874344,-0.05874359607696533,-0.02236827276647091,0.12437054514884949,-0.020754586905241013,-0.009508654475212097,0.0040724016726017,0.07375378161668777,-0.033675722777843475,-0.0587894469499588,0.10672091692686081,-0.16710083186626434,-0.0718962550163269,-0.09686829894781113,-0.10901931673288345,0.10131418704986572,-0.17401739954948425,0.08151420205831528,-0.01999625563621521,-0.01889185793697834,-0.22140172123908997,-0.053769566118717194,-0.12216873466968536,-0.0548296794295311,0.04644610360264778,-0.07270603626966476,0.0204668790102005,-0.060925278812646866,0.043320171535015106,0.033213067799806595,0.0013758299173787236,0.05233641713857651,0.06554368883371353,0.06627040356397629,-0.089323028922081,-0.1162995919585228,0.11288700997829437,-0.038249701261520386,0.032610490918159485,-0.08441390097141266,0.03947330266237259,-0.0004135944473091513,-0.09375221282243729,-0.0687284991145134,0.0799037292599678,0.06548400223255157,-0.016382047906517982,-0.07342620939016342,-0.02894997037947178,0.06557998806238174,-0.0697108581662178,-0.033799223601818085,0.15232966840267181,0.0205403920263052,-0.07096991688013077,-0.07044151425361633,0.1229267492890358,0.10440246015787125,-0.16297730803489685,-0.03216477110981941,0.153879776597023,-0.09504695981740952,0.11990314722061157,0.06970323622226715,-0.14871491491794586,0.15329186618328094,-0.126911923289299,0.03768075630068779,-0.11178287118673325,-0.011254746466875076,-0.08250275254249573,-0.045503415167331696,0.11125052720308304,0.10096442699432373,-0.04212778061628342,0.05683975666761398,-0.1192716658115387,-0.18958616256713867,0.25125983357429504,0.11918596923351288,-0.17487390339374542,0.037277303636074066,-0.21110840141773224,0.1370297223329544,-0.21620404720306396,0.05206939950585365,-0.03222762420773506,0.2114344835281372,-0.14460979402065277,-0.0009185161325149238,-0.08118462562561035,0.13953499495983124,-0.15778714418411255,0.010152225382626057,-0.11023270338773727,-0.14346614480018616,0.01338944025337696,-0.2533678114414215,0.10118705779314041,-0.18798841536045074,0.21127919852733612,0.0015249308198690414,0.09795936197042465,0.12952920794487,-0.12927091121673584,-0.05539555102586746,0.09636136889457703,0.029770100489258766,-0.081046923995018,0.01559527963399887,-0.06333871930837631,-0.07943528890609741,-0.017451336607336998,-0.08300689607858658,0.0857517346739769,-0.013913702219724655,0.031815920025110245,0.11440534144639969,0.11300288140773773,0.05696222931146622,-0.0540156215429306,-0.07029183954000473,0.2072565257549286,0.23820273578166962,0.0016202476108446717,0.01584518700838089,-0.058255329728126526,0.0820329561829567,0.039277926087379456,0.02553907036781311,0.17906738817691803,-0.08819162100553513,-0.13013216853141785,0.021643202751874924,0.12629090249538422,0.10232017934322357,-0.016512887552380562,0.12233438342809677,-0.012039558961987495,0.09612061083316803,-0.019725129008293152,0.09428705275058746,-0.051460374146699905,-0.11362159252166748,0.06323041021823883,0.014817203395068645,0.0035184731241315603,0.06333774328231812,0.09353969991207123,0.10690773278474808,0.028533469885587692,0.08437641710042953,-0.11532946676015854,-0.015629110857844353,-0.05040903016924858,0.012664282694458961,-0.10575269907712936,-0.049720585346221924,-0.1673227846622467,0.06179461255669594,-0.05544601380825043,-0.09077636152505875,-0.03539726883172989,0.05540597066283226,0.011644541285932064,-0.07169076055288315,-0.04392623156309128,-0.03137105330824852,-0.05544094368815422,-0.06460020691156387,0.04962578043341637,-0.06961475312709808,-0.04594831168651581,-0.09479065984487534,-0.14194191992282867,0.056006044149398804,-0.14253555238246918,0.07155407965183258,0.032805684953927994,0.03322984650731087,-0.2141655534505844,-0.025860365480184555,-0.1669296771287918,-0.07581280916929245,0.024782909080386162,-0.01944471150636673,0.001960406079888344,-0.02602456323802471,0.038341596722602844,0.037800829857587814,0.007890921086072922,0.05538589879870415,0.04091837629675865,0.02924739196896553,-0.017176013439893723,-0.12769539654254913,0.05619170889258385,0.04016578942537308,0.010424095205962658,-0.05738522857427597,0.06900889426469803,0.038060422986745834,-0.08946432918310165,-0.15067292749881744,0.028777064755558968,-0.012468907982110977,-0.03411201387643814,-0.08838722854852676,0.0039753844030201435,0.04883782938122749,-0.04464498907327652,-0.15099987387657166,0.15087677538394928,0.021500011906027794,-0.022347167134284973,-0.0718415379524231,0.09685397893190384,0.14439180493354797,-0.2029266059398651,0.0346093624830246,0.03637582063674927,-0.015071355737745762,0.07884198427200317,0.0632486417889595,-0.07206562161445618,0.1193663701415062,-0.09053662419319153,0.0015108982333913445,-0.05929140746593475,-0.10165657103061676,-0.13020941615104675,0.029271535575389862,0.09201846271753311,-0.07642482966184616,-0.015888260677456856,-0.03899473324418068,-0.17568393051624298,-0.09855080395936966,0.21414996683597565,0.12841008603572845,-0.13049902021884918,0.0763775110244751,-0.16664904356002808,0.15136165916919708,-0.15090696513652802,0.005346233025193214,-0.05900069326162338,0.15247130393981934,-0.20991596579551697,0.04701513797044754,0.18511739373207092,0.1935422718524933,-0.09233012795448303,-0.025620821863412857,-0.09653089940547943,-0.12806594371795654,0.020763160660862923,-0.31689172983169556,0.07642097771167755,-0.0763554647564888,0.11141069233417511,0.08060771226882935,0.15669338405132294,0.12660962343215942,-0.16625426709651947,-0.0757095143198967,0.1718471497297287,-0.046335410326719284,-0.006496591027826071,-0.1294969767332077,-0.060655225068330765,-0.13146404922008514,0.03806520998477936,0.027471313253045082,-0.01768842525780201,0.010384532622992992,-0.008595684543251991,0.031389664858579636,0.09586290270090103,0.0984591618180275,-0.003972081001847982,-0.13855068385601044,0.17153805494308472,0.2202320396900177,0.0587814599275589,0.08957171440124512,-0.08157558739185333,0.0823134183883667,0.11952806264162064,0.06405794620513916,0.05330440029501915,0.08695872128009796,-0.17891761660575867,0.05186395347118378,0.08957904577255249,0.10607375204563141,-0.06980270892381668,0.15050384402275085,-0.056442297995090485,0.03775766119360924,0.04531966149806976,0.10037628561258316,-0.02122870273888111,-0.06247555464506149,0.09739261865615845,-0.012231509201228619,-0.03218579664826393,0.0665990337729454,0.09603068977594376,0.11052940040826797,0.051238711923360825,0.10481847822666168,-0.1357942819595337,0.029486559331417084,0.0032927037682384253,0.023444218561053276,0.0021884432062506676,-0.02423369511961937,-0.16549105942249298,-0.020074188709259033,-0.05598180741071701,-0.041090480983257294,-0.036142315715551376,0.08035670965909958,-0.011472527869045734,-0.053366102278232574,-0.02207130566239357,-0.020881488919258118,-0.01110751647502184,-0.1057102233171463,0.07627581059932709,-0.130357563495636,0.061059627681970596,-0.13045351207256317,-0.20349302887916565,0.03701264038681984,-0.19983695447444916,0.11892376840114594,0.053418632596731186,0.16431456804275513,-0.09799382835626602,-0.144973024725914,-0.16027890145778656,-0.03833691030740738,0.08495248109102249,-0.051827192306518555,0.0015671965666115284,-0.04249199479818344,0.02070046402513981,-0.0666012242436409,-0.0003672632738016546,0.06076996400952339,0.08488617092370987,0.04661736264824867,-0.013579458929598331,-0.027754928916692734,0.02050950564444065,0.04360546916723251,0.06855180114507675,-0.01645977795124054,0.11241402477025986,0.04838773235678673,-0.017645539715886116,-0.2206878513097763,0.006125511135905981,-0.04434281215071678,-0.043506741523742676,-0.10236704349517822,0.04994703456759453,-0.06860864907503128,0.021839987486600876,-0.14389203488826752,0.19347208738327026,0.018244748935103416,-0.017739783972501755,0.009365388192236423,0.11108210682868958,0.21441635489463806,-0.06101524457335472,-0.028961578384041786,-0.09793850034475327,0.004442192148417234,0.038239702582359314,0.015188011340796947,-0.15137776732444763,0.04016886651515961,0.06576265394687653,-0.09446872025728226,-0.011263786815106869,-0.045925572514534,-0.20347563922405243,0.050455495715141296,0.03725240007042885,-0.09736404567956924,-0.031588684767484665,-0.055632948875427246,-0.2519342303276062,0.06843661516904831,0.30568167567253113,0.16578282415866852,-0.19716985523700714,0.0672435536980629,-0.19481323659420013,0.06252992153167725,-0.21526846289634705,-0.06627178192138672,-0.09709151834249496,0.13614830374717712,-0.192879319190979,-0.08373535424470901,0.23414231836795807,0.3117140233516693,-0.082565076649189,-0.026826024055480957,-0.060568634420633316,-0.15268705785274506,0.0246554184705019,-0.23383386433124542,-0.018605101853609085,0.015423999167978764,0.053002968430519104,0.1025061309337616,0.17618246376514435,0.050575140863657,-0.08479073643684387,0.007000381126999855,0.13682915270328522,-0.009887649677693844,0.0909801721572876,-0.0966353565454483,-0.09342797845602036,-0.08349350094795227,0.027400393038988113,0.035990796983242035,-0.044389527291059494,0.0917884036898613,0.0030852630734443665,-0.025435583665966988,0.12429837137460709,0.05881785228848457,-0.09685419499874115,-0.14220228791236877,0.08553285896778107,0.1686696708202362,0.13012731075286865,0.06153632700443268,-0.03728463873267174,-0.03950120881199837,0.1798124760389328,0.1198488399386406,-0.0032881954684853554,0.1384473294019699,-0.18437792360782623,-0.04220936447381973,0.141600102186203,0.0923011377453804,-0.0754939541220665,0.12762810289859772,-0.1340443342924118,0.09912411868572235,0.08488591760396957,0.0822950154542923,0.023765800520777702,-0.021170208230614662,0.10712342709302902,-0.013503425754606724,-0.06505310535430908,-0.003373435465618968,0.10477107763290405,0.10157855600118637,0.05340168625116348,0.07998336106538773,-0.14721666276454926,-0.009350467473268509,0.05057584494352341,0.0747099444270134,0.07551980018615723,0.02001572772860527,-0.15526923537254333,8.460860408376902e-05,-0.0957525297999382,-0.05266524478793144,-0.05682726949453354,0.08121513575315475,0.062462467700242996,-0.08688674122095108,-0.03528672829270363,-0.02524578757584095,0.1474590003490448,-0.08479880541563034,0.05936842039227486,-0.06177052482962608,0.07551904022693634,-0.06403054296970367,-0.21156522631645203,-0.004199879709631205,-0.2013011872768402,-0.007658494636416435,0.016678905114531517,0.11117831617593765,-0.1385113149881363,-0.14035609364509583,-0.13958275318145752,-0.07997146248817444,0.055197760462760925,0.08388032764196396,-0.012593994848430157,-0.06193876639008522,0.06982415169477463,-0.11222683638334274,0.0222617257386446,0.05971107631921768,0.06401431560516357,0.019563183188438416,0.046861808747053146,-0.019836964085698128,-0.008241383358836174,0.015436883084475994,0.06794164329767227,-7.950977305881679e-05,0.1380952000617981,0.09421399235725403,-0.052349891513586044,-0.10399707406759262,-0.06903072446584702,-0.09481842070817947,0.007232921198010445,-0.10714933276176453,1.6778408280515578e-06,-0.04507998749613762,-0.003482881700620055,-0.07135679572820663,0.256399929523468,-0.01661091484129429,-0.007762200199067593,0.021467365324497223,0.16118091344833374,0.16597576439380646,-0.011866115964949131,0.008467471227049828,-0.17077864706516266,0.15601056814193726,-0.029703397303819656,0.03336051106452942,-0.10930626094341278,-0.10964382439851761,0.04783939570188522,-0.12181372940540314,-0.02556612528860569,-0.04560983553528786,-0.1339879184961319,0.12426117062568665,-0.009381036274135113,-0.12239901721477509,-0.07849647104740143,-0.02996245212852955,-0.22512483596801758,0.15056507289409637,0.187025249004364,0.1622762680053711,-0.13879965245723724,0.046815816313028336,-0.1707366704940796,-0.03339836746454239,-0.27651241421699524,-0.04924854263663292,-0.10615235567092896,0.0809083804488182,-0.20450466871261597,-0.08656079322099686,0.22360913455486298,0.29422444105148315,0.03926337510347366,-0.0922398567199707,0.02346263825893402,-0.18752692639827728,0.0005380271468311548,-0.20025302469730377,-0.10234137624502182,0.09399190545082092,0.0782892182469368,0.09741197526454926,0.13125725090503693,-0.008370372466742992,-0.11301276832818985,-0.024656860157847404,0.03603019565343857,-0.04002717137336731,0.0789530798792839,-0.07415200024843216,-0.06290273368358612,-0.20663435757160187,-0.017783813178539276,0.10865858197212219,-0.08750273287296295,0.13240621984004974,0.042119063436985016,0.06653927266597748,0.036996494978666306,-0.049250148236751556,-0.0021426130551844835,-0.03411576524376869,0.05486690253019333,0.0776979923248291,0.12680600583553314,0.1392863690853119,-0.0184608343988657,-0.0044359443709254265,0.1472391039133072,0.24180370569229126,-0.12909410893917084,0.07056637108325958,-0.15691448748111725,0.01158412080258131,0.14423908293247223,0.07349816709756851,-0.10167690366506577,0.13146160542964935,-0.17199048399925232,0.10224367678165436,0.00018094746337737888,0.06838168203830719,0.03998995199799538,-0.05272400379180908,0.10093722492456436,0.053282953798770905,0.004202008713036776,-0.032020825892686844,0.13504591584205627,0.09339089691638947,0.10597891360521317,0.05626232549548149,-0.1264026015996933,0.001986527116969228,0.11359156668186188,0.11220180243253708,0.07997534424066544,0.12941239774227142,-0.18543614447116852,0.016845379024744034,-0.05567902326583862,-0.013423868454992771,-0.05775195732712746,-0.015628281980752945,0.10696987807750702,-0.03360731899738312,-0.03496186435222626,-0.06436509639024734,0.11310118436813354,-0.07229671627283096,0.05534551665186882,-0.09714469313621521,0.10780447721481323,0.06592617183923721,-0.2257363647222519,0.08693044632673264,-0.24268215894699097,-0.06127519533038139,0.13004432618618011,0.08538477122783661,-0.08643245697021484,-0.1860891431570053,-0.21617242693901062,-0.06535834074020386,0.06935951113700867,0.09515724331140518,-0.00011790748976636678,-0.004795421380549669,-0.032960619777441025,-0.12151028215885162,0.055721089243888855,0.011187846772372723,-0.015355507843196392,0.03307993710041046,-0.005454950965940952,0.00616007624194026,0.011436107568442822,-0.02848794311285019,0.07865549623966217,0.07150884717702866,0.09545130282640457,0.038615863770246506,-0.02703166753053665,-0.02681245468556881,-0.056879401206970215,-0.19164106249809265,-0.007418659050017595,-0.08829820156097412,0.028912261128425598,-0.07911621034145355,0.06437765061855316,0.013708500191569328,0.18278741836547852,0.028959976509213448,0.024800827726721764,0.08774461597204208,0.16872252523899078,0.13526685535907745,0.003836235962808132,0.08920787274837494,-0.1452638804912567,0.19039897620677948,0.004721566569060087,0.09964969754219055,-0.08390031009912491,-0.13143469393253326,0.03382145240902901,-0.15440057218074799,0.03938620164990425,0.04577762261033058,-0.16351193189620972,0.1583750993013382,-0.07278499752283096,-0.13061560690402985,-0.14599557220935822,-0.05323945730924606,-0.2515482008457184,0.19067247211933136,0.12886473536491394,0.20531710982322693,-0.11052736639976501,0.11318479478359222,-0.08763498067855835,-0.0909816175699234,-0.24627956748008728,-0.04027034342288971,-0.09802651405334473,0.003712882287800312,-0.21368446946144104,-0.2101735919713974,0.18706494569778442,0.2710820138454437,0.14417971670627594,0.059227682650089264,0.034498728811740875,-0.15685968101024628,0.05410411208868027,0.008145932108163834,-0.18546836078166962,0.11543147265911102,0.08057744801044464,0.06280635297298431,0.20034034550189972,-0.09186821430921555,-0.04161562770605087,0.01927831396460533,-0.023701202124357224,0.013242724351584911,0.19482026994228363,-0.004286312963813543,-0.0993657186627388,-0.27425867319107056,-0.04213395342230797,0.14711035788059235,-0.1166858822107315,0.15649932622909546,0.05272696912288666,0.016099274158477783,-0.00449784891679883,-0.06950680911540985,0.003540961304679513,-0.007369601167738438,-0.003237381810322404,0.005371146835386753,0.07609252631664276,0.11915311217308044,-0.07061862200498581,-0.0803203135728836,0.14975608885288239,0.284584105014801,-0.06938087195158005,0.08944154530763626,-0.23190230131149292,-0.0002932717325165868,0.09817343205213547,0.019607096910476685,-0.09742904454469681,0.09635839611291885,-0.11145047843456268,-0.046950358897447586,-0.0587015300989151,0.031171921640634537,-0.06427011638879776,-0.09793510288000107,0.12113398313522339,-0.05794840306043625,0.031160859391093254,-0.025934109464287758,0.13234004378318787,0.020872704684734344,0.10131056606769562,-0.05011170357465744,-0.1321929544210434,-0.0774683728814125,0.1410387009382248,0.17491567134857178,0.09629084914922714,0.14072349667549133,-0.1941998451948166,0.00590276625007391,-0.03799634054303169,-0.027006546035408974,-0.09789633005857468,-0.007533390540629625,0.09742206335067749,0.0034118788316845894,-0.03733086213469505,-0.05393025279045105,0.08866600692272186,-0.08770421892404556,0.004132230766117573,-0.09141805022954941,0.0927729457616806,0.17032992839813232,-0.20216044783592224,0.06628677994012833,-0.18258659541606903,-0.05099640041589737,0.07140541821718216,0.01049238070845604,-0.0267145037651062,-0.18812008202075958,-0.1643381267786026,-0.03990447148680687,0.057145752012729645,0.06854376941919327,-0.04493960738182068,-0.017518728971481323,0.020263945683836937,-0.15082775056362152,0.07748602330684662,0.019684890285134315,0.013543752953410149,0.03731900081038475,0.06952395290136337,0.1223372370004654,-0.06521406769752502,-0.01896784082055092,0.031094804406166077,0.021757589653134346,0.099765345454216,0.0002067691384581849,0.008276967331767082,0.019718386232852936,-0.027440888807177544,-0.18575072288513184,0.10644625127315521,-0.009244823828339577,-0.0705668181180954,-0.07805342227220535,0.13627220690250397,0.06617546081542969,0.1546117067337036,0.05506954714655876,0.0008457594085484743,0.17848369479179382,0.13966581225395203,0.04662393406033516,0.027310669422149658,0.116455078125,-0.07503556460142136,0.10132185369729996,-0.05878658965229988,0.039650771766901016,-0.023502685129642487,-0.13095736503601074,0.0752045065164566,-0.02425418607890606,0.009634065441787243,-0.01454941462725401,-0.11722645908594131,0.2165096402168274,-0.060856159776449203,-0.1376981884241104,-0.17443343997001648,-0.015803787857294083,-0.22627902030944824,0.17801478505134583,0.04663693532347679,0.23218600451946259,-0.10477790236473083,0.08867907524108887,-0.06935668736696243,-0.15882951021194458,-0.13711926341056824,0.030281508341431618,-0.09235520660877228,-0.06805673241615295,-0.21571022272109985,-0.15536586940288544,0.18369698524475098,0.14370130002498627,0.16544823348522186,0.0838460922241211,0.0904182493686676,-0.17735952138900757,-0.0015874226810410619,0.22158540785312653,-0.23843315243721008,0.039740148931741714,0.02219182811677456,0.029305240139365196,0.181376114487648,-0.10348778963088989,-0.029127275571227074,0.05372627452015877,-0.024104518815875053,-0.10244452208280563,0.19878564774990082,0.041211292147636414,-0.06308253109455109,-0.24082529544830322,-0.027385979890823364,0.038760457187891006,-0.12151110917329788,0.14817731082439423,0.07382619380950928,0.04663335159420967,-0.06422852724790573,-0.10377702116966248,0.014186078682541847,0.1036527156829834,-0.05655675008893013,-0.1303713023662567,0.12307202816009521,0.2046731412410736,-0.032087765634059906,-0.05130679905414581,0.11870210617780685,0.18934597074985504,-0.040793802589178085,0.0021381359547376633,-0.2162691205739975,-0.04567968100309372,-0.010792679153382778,0.007635663729161024,-0.10065209865570068,0.08737630397081375,-0.10004063695669174,-0.025716576725244522,-0.0876440554857254,0.09178977459669113,-0.0376221239566803,-0.021013706922531128,0.01980389654636383,-0.05246235802769661,0.011021681129932404,-0.09855101257562637,0.14797939360141754,0.053158316761255264,0.08887168020009995,-0.12922123074531555,-0.1268930286169052,-0.06716032326221466,0.22338807582855225,0.10251852124929428,0.11301378905773163,0.12904110550880432,-0.15044209361076355,0.05181490257382393,-0.0602235347032547,-0.013929772190749645,-0.1283683031797409,-0.028704829514026642,0.15514497458934784,0.0019121235236525536,0.042633555829524994,-0.07040540874004364,0.05507549270987511,-0.0874047800898552,0.013110564090311527,-0.08234007656574249,0.05997603386640549,0.16305804252624512,-0.1460869312286377,0.055693916976451874,-0.209252268075943,-0.08507625758647919,0.012449203059077263,-0.0935722291469574,0.010838034562766552,-0.18472006916999817,-0.21808497607707977,-0.011918117292225361,0.04811619222164154,0.14729318022727966,0.002469276776537299,0.07541350275278091,-0.05746011435985565,-0.09155454486608505,0.06136316433548927,-0.0026045525446534157,-0.032898787409067154,-0.0098190288990736,0.041929423809051514,0.0634014829993248,-0.050159115344285965,-0.011353112757205963,0.03104749694466591,0.04884658753871918,0.02152983844280243,0.0696803405880928,0.012073017656803131,0.06038440018892288,-0.015908172354102135,-0.19409413635730743,0.10173602402210236,-0.01756439171731472,-0.08422058075666428,-0.05501016601920128,0.1636214703321457,0.02814219519495964,0.12857277691364288,0.0024295521434396505,0.11050879955291748,0.18278726935386658,0.045892346650362015,0.015912258997559547,-0.01396095845848322,0.1537535935640335,-0.03501361235976219,0.04002733901143074,0.010597920045256615,0.027949588373303413,0.04384404048323631,-0.07844863086938858,0.13909278810024261,0.028407292440533638,0.05509154126048088,-0.04097500443458557,-0.17337527871131897,0.22575151920318604,-0.14705397188663483,-0.2177104353904724,-0.05936179682612419,-0.015339624136686325,-0.1829649657011032,0.030652256682515144,-0.13891087472438812,0.12816226482391357,-0.03021688386797905,0.08088479936122894,0.02522924542427063,-0.036193497478961945,-0.07556172460317612,-0.01596362702548504,-0.16372139751911163,-0.19450373947620392,-0.1345798373222351,-0.08173497766256332,0.17304612696170807,0.08203715831041336,0.1600964218378067,0.19850772619247437,0.10625157505273819,-0.18885381519794464,0.05102606117725372,0.229848712682724,-0.3332691788673401,0.1018751785159111,-0.06758815050125122,0.06826028227806091,0.18571946024894714,-0.16307160258293152,-0.010579178109765053,0.19053493440151215,-0.008657163940370083,-0.1007438600063324,0.10236676782369614,0.1492532193660736,-0.05210119113326073,-0.21669860184192657,-0.004827456548810005,0.01609085313975811,-0.16714444756507874,0.05526744946837425,0.17540138959884644,0.07170538604259491,-0.06518819183111191,-0.017979899421334267,0.015579224564135075,0.0917188748717308,-0.016183044761419296,-0.16905634105205536,0.08209801465272903,0.1878124326467514,-0.04875775799155235,-0.055572327226400375,0.1036621630191803,0.17494748532772064,-0.06859160959720612,-0.016370613127946854,-0.14112649857997894,-0.024381792172789574,-0.06632664054632187,0.06189008429646492,-0.05414165183901787,0.15718547999858856,0.025234095752239227,-0.04969576373696327,-0.15204885601997375,-0.015719065442681313,-0.0017057826044037938,-0.008165798150002956,0.046101249754428864,-0.08444444835186005,-0.02518194541335106,-0.11953729391098022,0.08300880342721939,0.0032161714043468237,0.14669498801231384,-0.16550064086914062,-0.06939201056957245,-0.015534086152911186,0.15151330828666687,0.1035003587603569,0.14348481595516205,0.14357389509677887,-0.13925430178642273,0.06651691347360611,0.023172160610556602,0.023644112050533295,-0.22851252555847168,0.05200398340821266,0.14512671530246735,0.02251693792641163,-0.012967354618012905,-0.10155501961708069,0.11710670590400696,-0.09164029359817505,-0.03244835138320923,-0.06369541585445404,0.04887094721198082,0.07513873279094696,-0.16308645904064178,-0.033680059015750885,-0.19714191555976868,-0.07922932505607605,-0.014210181310772896,-0.053673435002565384,0.03083338402211666,-0.27141648530960083,-0.1742909699678421,-0.02949737012386322,0.01914081908762455,0.09368984401226044,-0.060469456017017365,-0.0032373906578868628,-0.0438423752784729,-0.062097594141960144,0.010205776430666447,-0.06418904662132263,-0.05434449389576912,0.006436662282794714,0.1179356798529625,-0.05827806517481804,-0.11938366293907166,-0.001903884462080896,0.0996105894446373,0.031863611191511154,-0.003145068883895874,-0.04639311507344246,0.058767836540937424,0.11985248327255249,-0.08918533474206924,-0.17153793573379517,0.12193369120359421,-0.016574570909142494,-0.046299949288368225,-0.11589808762073517,0.106053426861763,0.00020235033298376948,0.07380809634923935,0.03725142776966095,0.09950235486030579,0.13509967923164368,0.06433765590190887,-0.07330625504255295,-0.06298951059579849,0.20652271807193756,0.039801787585020065,-0.020741131156682968,-0.01592935435473919,0.08520373702049255,0.030560068786144257,-0.016186578199267387,0.10894056409597397,0.13561266660690308,0.08635754883289337,-0.14258727431297302,-0.19775161147117615,0.18164221942424774,-0.12349268049001694,-0.17454519867897034,-0.06446683406829834,-0.13186725974082947,-0.08449212461709976,-0.05772416293621063,-0.15187875926494598,0.19096209108829498,-0.015218495391309261,0.004379911348223686,0.022222811356186867,-0.0024433385115116835,-0.03279619291424751,-0.04293850064277649,-0.17902003228664398,-0.21398234367370605,-0.19533471763134003,-0.11601594090461731,0.13415533304214478,-0.10860724747180939,0.12130379676818848,0.29210737347602844,0.09669093042612076,-0.21051864326000214,0.031412407755851746,0.2998025715351105,-0.3302038908004761,-0.00434265099465847,-0.08936061710119247,0.10195757448673248,0.09859472513198853,-0.13600626587867737,0.055380698293447495,0.17916500568389893,-0.04774058237671852,-0.05416044592857361,0.06843830645084381,0.19668686389923096,-0.022974185645580292,-0.1509920209646225,-0.010190935805439949,-0.02131987176835537,-0.21590065956115723,0.07986020296812057,0.15581507980823517,0.08150159567594528,-0.06447798758745193,-0.04591795429587364,0.030868705362081528,0.22304216027259827,-0.004321650601923466,-0.10869898647069931,0.03465297818183899,0.1319519579410553,-0.14969435334205627,-0.07506640255451202,0.03705066069960594,0.08151321113109589,-0.012747542932629585,-0.004783079028129578,-0.07931835949420929,-0.0004631058545783162,-0.0949888527393341,0.07971377670764923,-0.12518884241580963,0.1619124412536621,0.009240731596946716,-0.07284333556890488,-0.1252119541168213,-0.016648273915052414,0.034225258976221085,-0.0063680256716907024,-0.0064522805623710155,-0.07051502168178558,0.000512791215442121,-0.07195711880922318,-0.03257649764418602,0.030401941388845444,0.10755366832017899,-0.21663011610507965,-0.04383828863501549,-0.05087839439511299,0.16462506353855133,0.0501386821269989,0.10207576304674149,0.13068033754825592,-0.10354049503803253,0.03779403492808342,0.07681532949209213,0.08795256912708282,-0.16436997056007385,0.15604843199253082,0.09327027201652527,-0.062010206282138824,-0.014642276801168919,-0.08034399151802063,0.0022614423651248217,-0.03104257397353649,-0.029866350814700127,-0.02421621046960354,0.020082926377654076,0.017521753907203674,-0.0808856189250946,0.07565218210220337,-0.09083297103643417,-0.12215781956911087,-0.023898964747786522,-0.09378822892904282,0.16919158399105072,-0.20484521985054016,-0.23336899280548096,0.05371403321623802,-0.03947306051850319,0.01599123142659664,-0.04064547270536423,-0.005398499313741922,-0.07173436135053635,0.10787473618984222,0.040575478225946426,-0.020105108618736267,-0.08975643664598465,0.012976630590856075,0.06813982129096985,-0.04547034949064255,-0.08059597760438919,-0.020393913611769676,0.03285200521349907,-0.004747884348034859,0.02629108726978302,-0.04544280096888542,0.012357097119092941,0.08595923334360123,-0.08679237961769104,-0.1049920916557312,0.15042155981063843,-0.028987864032387733,-0.10305587202310562,-0.06959769874811172,0.013172662816941738,-0.01878984086215496,-0.05426563322544098,0.00537440599873662,0.15676690638065338,0.09360602498054504,0.008562043309211731,-0.06997821480035782,-0.06858111172914505,0.13052161037921906,0.016517801210284233,-0.0959237590432167,-0.00988621823489666,0.015109086409211159,0.04404643177986145,0.04173731058835983,0.10608503967523575,0.04457999765872955,0.12873488664627075,-0.10734221339225769,-0.10470721870660782,0.15877500176429749,-0.12861277163028717,-0.08449982851743698,0.024069802835583687,-0.023422928526997566,0.04808393493294716,-0.11657495051622391,-0.20857436954975128,0.138808012008667,-0.04270654544234276,-0.025215672329068184,0.0504656620323658,0.06525971740484238,0.061029162257909775,-0.1796295940876007,-0.11695843935012817,-0.14091186225414276,-0.08816491812467575,-0.00544091546908021,0.08070355653762817,-0.1619376838207245,0.12589073181152344,0.25747573375701904,0.14648115634918213,-0.2117370069026947,0.0020707263611257076,0.3021932542324066,-0.33095139265060425,0.0560888908803463,-0.10329215973615646,0.12428318709135056,0.06712063401937485,-0.12928947806358337,0.11332643777132034,0.208168625831604,-0.02056029438972473,-0.024690061807632446,0.033985696732997894,0.16762973368167877,-0.05263656750321388,-0.05800021067261696,-0.03985319659113884,-0.11202293634414673,-0.21184779703617096,0.04466599225997925,0.15842968225479126,0.02703498676419258,-0.042888201773166656,0.016172388568520546,0.060522470623254776,0.256332129240036,-0.05277414247393608,-0.1017589196562767,0.04739493504166603,0.07145952433347702,-0.20032046735286713,0.02431737259030342,0.011475080624222755,0.007456471677869558,0.009862560778856277,0.04070631414651871,0.05022607743740082,-0.04011671990156174,-0.1985287070274353,0.07702489197254181,-0.1524241715669632,0.05360541120171547,0.05038066580891609,-0.03828577697277069,-0.05927625671029091,-0.011078555136919022,-0.015641702339053154,-0.019575612619519234,-0.07759038358926773,-0.03085070475935936,-0.032165732234716415,-0.005679164547473192,-0.029878957197070122,0.12951309978961945,0.13571329414844513,-0.1702931523323059,-0.06977912783622742,-0.0984528511762619,0.07682830095291138,-0.04163947328925133,0.15235061943531036,0.08598481118679047,-0.052138801664114,-0.01021235529333353,0.041685037314891815,0.12650355696678162,-0.15038858354091644,0.03401552513241768,0.06844530254602432,-0.03639369457960129,-0.03257280960679054,-0.08104601502418518,0.015331880189478397,-0.038485463708639145,-0.009260051883757114,-0.024363437667489052,-0.03912826627492905,-0.0991128459572792,-0.058101773262023926,0.07348468154668808,-0.05471669137477875,-0.038564085960388184,0.05694105476140976,-0.03478117659687996,0.19378766417503357,-0.23640891909599304,-0.20159812271595,0.06651891767978668,0.023722346872091293,-0.029276570305228233,-0.0642012357711792,0.015923557803034782,-0.04169618710875511,0.047873605042696,-0.015985587611794472,-0.11711031943559647,-0.05676167085766792,-0.00665674265474081,0.02475780062377453,0.019072314724326134,-0.1024254560470581,0.057128384709358215,-0.010351618751883507,-0.011103520169854164,0.044554851949214935,-0.10492503643035889,0.03351803869009018,0.09789330512285233,-0.08320392668247223,-0.03999468311667442,0.14072825014591217,-0.05502340942621231,-0.13125944137573242,-0.03276386484503746,0.04389724135398865,-0.05384546518325806,-0.13667045533657074,0.033572498708963394,0.13294652104377747,0.08987608551979065,0.00962661113590002,-0.016056649386882782,-0.027889836579561234,0.04626259207725525,-0.021963145583868027,-0.06673941761255264,-0.03162137418985367,0.055716343224048615,0.13973280787467957,0.03434024006128311,0.07509390264749527,-0.005319060292094946,0.11848944425582886,-0.06431223452091217,-0.07963472604751587,0.052140798419713974,-0.10719667375087738,-0.10291943699121475,0.029930951073765755,0.002325744368135929,0.03671841695904732,-0.17678412795066833,-0.25408315658569336,0.07152742147445679,-0.129231795668602,-0.056889984756708145,0.10630945861339569,0.0013238112442195415,0.121938057243824,-0.19274070858955383,-0.03992392495274544,-0.15354453027248383,-0.06806715577840805,0.15534090995788574,0.030304061248898506,-0.15690094232559204,0.14565759897232056,0.30435287952423096,0.16803595423698425,-0.09660306572914124,0.016309773549437523,0.22548672556877136,-0.3061741590499878,0.0945211872458458,-0.130390927195549,0.22543084621429443,-0.03194118291139603,-0.09202361851930618,0.07347743213176727,0.13669930398464203,-0.03484711796045303,0.0802471786737442,-0.03809364140033722,0.08005606383085251,0.0010856722947210073,0.03614761307835579,-0.0257157851010561,-0.15048661828041077,-0.20466460287570953,0.016270993277430534,0.08610649406909943,0.07076627016067505,-0.1471511274576187,0.09776072949171066,0.061987441033124924,0.2476896345615387,-0.054625000804662704,-0.09997083246707916,0.038781650364398956,0.08111731708049774,-0.25224828720092773,0.029679570347070694,-0.007256137672811747,-0.056091390550136566,0.004972431343048811,-0.022661976516246796,0.08318685740232468,0.03577827289700508,-0.147191122174263,0.02365880273282528,-0.14208506047725677,0.06692135334014893,0.06745579093694687,-0.03572377189993858,-0.008391243405640125,0.02840590290725231,0.01724417693912983,-0.025697441771626472,0.010229026898741722,-0.060601770877838135,-0.06600993871688843,0.012038687244057655,-0.0380362793803215,0.13219726085662842,0.07223886251449585,-0.182109996676445,0.006383676081895828,-0.06415685266256332,0.11452759057283401,-0.03723185509443283,0.15693730115890503,0.04033692181110382,-0.048578113317489624,-0.017452411353588104,0.13797074556350708,0.0928899496793747,-0.12499260902404785,0.0004014497098978609,0.06472869217395782,-0.04902772232890129,0.013665606267750263,-0.020692039281129837,0.055293817073106766,-0.028753209859132767,-0.00882372260093689,-0.0355277918279171,-0.04026085510849953,-0.2078704833984375,-0.0641762912273407,0.03304675966501236,-0.04348018020391464,0.032412733882665634,0.04386785253882408,-0.03390207886695862,0.2244696468114853,-0.1350475698709488,-0.1696489155292511,0.05922965332865715,0.006066536996513605,-0.03704742714762688,-0.016058268025517464,0.01231271494179964,-0.030031777918338776,0.07625368982553482,-0.0399380624294281,-0.11654707044363022,-0.024167856201529503,-0.013626252301037312,-0.010506813414394855,0.006025054957717657,-0.033500149846076965,-0.04394380375742912,0.016798235476017,-0.00995321199297905,0.01019330695271492,-0.12522685527801514,0.030834529548883438,0.08713344484567642,-0.18531633913516998,-0.009914346970617771,0.12143241614103317,0.005431778728961945,-0.10845337063074112,0.017522359266877174,0.0070208837278187275,0.004864826798439026,-0.17407691478729248,-0.023001858964562416,0.08577750623226166,0.17559154331684113,0.03547896072268486,-0.010807713493704796,-0.040046222507953644,-0.012305902317166328,-0.052224647253751755,-0.08369556069374084,-0.05428590998053551,0.039658356457948685,0.07728517800569534,0.022229056805372238,0.13376623392105103,-0.03099554032087326,0.04799792915582657,-0.10755538195371628,0.055245812982320786,-0.015562904067337513,-0.08196469396352768,-0.11915968358516693,0.059665974229574203,0.004861732479184866,0.1254729926586151,-0.18404105305671692,-0.24363629519939423,0.03313956409692764,-0.11247213929891586,0.03837953135371208,-0.003189011011272669,0.013854100368916988,0.19390790164470673,-0.21996483206748962,0.06785326451063156,-0.15063859522342682,0.0016710516065359116,0.2220446765422821,0.04375627636909485,-0.1037321463227272,0.08959605544805527,0.2708345055580139,0.1071617603302002,-0.046323299407958984,-0.06489052623510361,0.09627316892147064,-0.24603763222694397,-0.0027220826596021652,-0.06976483762264252,0.1786062866449356,-0.09350181370973587,-0.06397151947021484,0.07230198383331299,-0.027783451601862907,-0.018611952662467957,0.06032119318842888,-0.0262353103607893,0.09663773328065872,0.04582928866147995,0.015267519280314445,-0.026271164417266846,-0.08797276020050049,-0.14978060126304626,-0.026040242984890938,0.07951436191797256,0.13065385818481445,-0.05339860916137695,0.09084241837263107,0.024006804451346397,0.28943151235580444,-0.03915464133024216,0.06891933083534241,0.0016335013788193464,0.05003918707370758,-0.29918426275253296,0.046946026384830475,0.04293256998062134,-0.11926635354757309,0.03446738421916962,-0.09508058428764343,0.18517182767391205,-0.11808104068040848,-0.10297304391860962,-0.03547794371843338,-0.14911618828773499,-0.0022959555499255657,0.1152208223938942,-0.03333703428506851,0.054690778255462646,0.04831508919596672,0.061858586966991425,0.027309833094477654,-0.007870299741625786,-0.06335479021072388,-0.03886261582374573,0.06572216749191284,-0.07153283059597015,0.11429773271083832,0.08442024886608124,-0.16947510838508606,-0.012829049490392208,-0.012074649333953857,0.13594399392604828,-0.09061222523450851,0.14306236803531647,-0.011557034216821194,0.05380747467279434,-0.06826066225767136,0.03336223214864731,0.08525162935256958,-0.10944945365190506,-0.002407064661383629,0.07648490369319916,-0.062383100390434265,0.015441758558154106,-0.05757048726081848,0.011349680833518505,0.02380324713885784,-0.03792702406644821,-0.013851885683834553,-0.06032097712159157,-0.1381998360157013,0.017778925597667694,0.07087606936693192,-0.021460607647895813,0.0074419304728507996,0.038973428308963776,-0.0997132658958435,0.23305079340934753,-0.12700633704662323,-0.08708029985427856,0.05006778985261917,-0.06339015066623688,-0.01709032990038395,-0.0315864160656929,-0.05707089975476265,-0.0521896593272686,0.032087698578834534,0.003987874835729599,-0.04998960718512535,-0.08060998469591141,-0.001042976975440979,0.013481102883815765,-0.011738901026546955,-0.014899047091603279,0.016433656215667725,-0.08485855162143707,0.047225628048181534,-0.055512040853500366,-0.11675328016281128,0.04150678217411041,0.05965176969766617,-0.17717906832695007,0.03920547291636467,0.20105519890785217,-0.05844326689839363,-0.0592222735285759,0.02872374840080738,-0.013632772490382195,0.04512294754385948,-0.20773914456367493,0.011546775698661804,-0.037921011447906494,0.08843202888965607,-0.04868578910827637,0.07231661677360535,-0.09583411365747452,-0.0006540433969348669,-0.02641616202890873,-0.105152428150177,-0.054795313626527786,-0.06543411314487457,0.08525390177965164,0.035778991878032684,0.16475504636764526,-0.056891001760959625,0.12404447048902512,-0.1341359168291092,0.09366270154714584,-0.09111211448907852,-0.039443179965019226,-0.1453513652086258,0.08340060710906982,-0.0021353703923523426,0.17488166689872742,-0.15306895971298218,-0.24615012109279633,-0.004913245793431997,-0.14394690096378326,0.01746906153857708,0.004360252991318703,-0.03498729318380356,0.2177550345659256,-0.17271627485752106,0.08070191740989685,-0.14727775752544403,0.07008615881204605,0.1909526288509369,0.015182395465672016,-0.06208981201052666,0.05748036503791809,0.24456395208835602,0.1039171889424324,0.00927486177533865,-0.010205098427832127,0.11143098026514053,-0.2062453180551529,0.05611340329051018,-0.06452395021915436,0.23348191380500793,-0.16216744482517242,-0.061060890555381775,0.01471001747995615,0.024693472310900688,0.01449289359152317,0.03550782427191734,-0.04560930281877518,-0.02885105460882187,0.08311194181442261,-0.012675967998802662,-0.023606548085808754,-0.11608278751373291,-0.14953434467315674,-0.05478309094905853,0.04561048373579979,0.02956460416316986,-0.11510685831308365,0.05098758637905121,0.0888955295085907,0.20888404548168182,-0.04342009127140045,0.14170138537883759,-0.0115823308005929,0.014251676388084888,-0.3071255087852478,0.026715174317359924,0.05754901468753815,-0.13145853579044342,0.080706387758255,-0.05100124701857567,0.16133543848991394,-0.0367518775165081,-0.045459914952516556,-0.09537860751152039,-0.09082412719726562,-0.016983475536108017,0.16610746085643768,0.023114189505577087,0.07375127077102661,0.04100225493311882,0.09852348268032074,-0.036086443811655045,-0.02602958120405674,-0.016757750883698463,-0.07014980167150497,0.13860130310058594,0.0037161034997552633,0.10879423469305038,0.06705649197101593,-0.05796525999903679,0.01564960367977619,0.1251637190580368,0.0852702260017395,-0.005718078929930925,0.10445424169301987,-0.0828685387969017,0.08751866221427917,-0.08619702607393265,0.0923115536570549,0.07896744459867477,-0.09044064581394196,0.055778078734874725,0.028514934703707695,0.03629500791430473,0.046868178993463516,-0.0023122476413846016,0.030184712260961533,-0.004147090017795563,-0.03715889900922775,0.009449564851820469,-0.032022625207901,-0.15927866101264954,0.05048805847764015,0.0740240216255188,-0.07646588236093521,0.006254449021071196,0.05038332939147949,-0.09148726612329483,0.1943267583847046,-0.12115959823131561,0.015133650973439217,0.0529402531683445,-0.01931077241897583,-0.02978161722421646,-0.030084919184446335,0.024662015959620476,0.0032450570724904537,0.04221420735120773,-0.030680928379297256,-0.08132053911685944,-0.05677603930234909,0.0037194215692579746,0.021410219371318817,-0.007383777294307947,-0.03657546639442444,-0.002795304637402296,-0.011589154601097107,0.07477176934480667,-0.07471191883087158,-0.23164884746074677,0.04347031190991402,-0.020567217841744423,-0.1386420726776123,0.049778733402490616,0.17988134920597076,0.016883092001080513,-0.08656755834817886,0.12611159682273865,-0.05883195623755455,0.054251059889793396,-0.20726697146892548,0.06930197775363922,0.006413240451365709,0.08457618206739426,0.0056732650846242905,0.04761815816164017,-0.06437864154577255,-0.0039398265071213245,0.023867208510637283,-0.13212966918945312,-0.08700127899646759,0.028973126783967018,0.05941883474588394,0.08130853623151779,0.156460240483284,-0.010240256786346436,0.1318182498216629,-0.1585831195116043,0.10206891596317291,-0.0687197670340538,0.005388346966356039,-0.08125543594360352,0.1230916678905487,-0.005974571220576763,0.15938955545425415,-0.15742361545562744,-0.24294184148311615,0.09626824408769608,-0.048805952072143555,0.0988539308309555,-0.10485103726387024,-0.021677816286683083,0.21614447236061096,-0.1465436965227127,0.1755944788455963,-0.12889759242534637,0.14995919167995453,0.22615061700344086,0.011570853181183338,-0.10246580839157104,0.024619100615382195,0.1958235800266266,0.09555213898420334,0.016139453276991844,-0.1170911192893982,-0.0018810892943292856,-0.22560229897499084,0.004731983877718449,-0.10411834716796875,0.12317796051502228,-0.14039839804172516,-0.006904611364006996,0.07422864437103271,-0.036683861166238785,0.029752317816019058,0.053003691136837006,-0.08330265432596207,0.07154373824596405,0.06019341200590134,0.06445086002349854,-0.004837310407310724,-0.0922546461224556,-0.0743953213095665,-0.03040553815662861,-0.024875111877918243,0.052929285913705826,-0.04473577439785004,0.007114137057214975,0.057040635496377945,0.15276797115802765,0.013365385122597218,0.15216438472270966,-0.024960683658719063,-0.04612795636057854,-0.21533368527889252,0.09514588117599487,0.14171744883060455,-0.14275754988193512,0.15340127050876617,-0.07367757707834244,0.17063573002815247,-0.04309537634253502,0.03752570226788521,-0.05215006694197655,-0.07191292941570282,0.021514583379030228,0.16541485488414764,-0.006675345823168755,0.11573484539985657,0.0684085562825203,-0.01934807188808918,-0.06570502370595932,-0.026785623282194138,-0.026046309620141983,-0.15586286783218384,0.10704650729894638,-0.04272330552339554,0.07538392394781113,0.004989865235984325,-0.09842046350240707,0.06668297201395035,0.03901584446430206,0.04102158546447754,0.011293748393654823,0.10078668594360352,-0.07050089538097382,0.13550274074077606,-0.06541430950164795,0.12262425571680069,0.023038996383547783,-0.07640237361192703,0.042214639484882355,0.05600039288401604,-0.03005068004131317,0.03852422162890434,0.018344281241297722,-0.029164595529437065,0.012415237724781036,-0.002213564235717058,0.10590110719203949,-0.017021959647536278,-0.16157229244709015,0.09178787469863892,0.07252375781536102,-0.034835197031497955,-0.00831185095012188,0.02139718271791935,-0.11175835877656937,0.14629913866519928,-0.00016918417531996965,0.07319428026676178,0.06622293591499329,-0.03438866138458252,-0.03951922804117203,-0.0358421690762043,-0.015460168942809105,-0.02896101586520672,0.045627154409885406,-0.03999887779355049,-0.1311168223619461,-0.03202289715409279,0.0042866491712629795,0.026250604540109634,-0.0004970362060703337,0.00629567401483655,-0.016424965113401413,-0.025359613820910454,0.0787055492401123,-0.14763018488883972,-0.12935663759708405,0.00041939193033613265,0.030140113085508347,-0.09053131937980652,-0.028892619535326958,0.14760997891426086,0.0794914960861206,-0.163938507437706,0.09022445976734161,-0.16481247544288635,0.04464859887957573,-0.27190274000167847,0.022932300344109535,-0.030606426298618317,0.11380714178085327,-0.013265368528664112,0.037420980632305145,-0.11481739580631256,0.02693481370806694,-0.0604519359767437,-0.21538814902305603,-0.04172610491514206,0.006016019731760025,-0.034332145005464554,0.06742144376039505,0.24462145566940308,-0.03212771192193031,0.07465807348489761,-0.17604027688503265,0.11757075041532516,-0.19056084752082825,0.03912202641367912,-0.0925062894821167,0.06698763370513916,0.07982678711414337,0.13284073770046234,-0.12942785024642944,-0.21256710588932037,0.0185717660933733,-0.019253088161349297,0.06816163659095764,-0.01183162909001112,0.008906826376914978,0.09351346641778946,-0.15095524489879608,0.20365746319293976,-0.12181862443685532,0.2423834353685379,0.11586843430995941,0.03797637298703194,-0.1053328663110733,0.02088817209005356,0.20270046591758728,0.03464338928461075,0.09619579464197159,-0.04290558770298958,-0.08827381581068039,-0.09333763271570206,-0.024155041202902794,-0.06924397498369217,0.09445741772651672,-0.048051875084638596,-0.015263976529240608,0.011444557458162308,-0.02549932338297367,0.03495489060878754,0.030218685045838356,-0.0917096734046936,-0.023198816925287247,0.09691723436117172,0.015220355242490768,-0.06631091237068176,-0.0677962675690651,-0.04903005063533783,-0.009197251871228218,-0.006741541437804699,0.061643585562705994,-0.05294427648186684,0.03555581718683243,0.062619149684906,0.02309401147067547,0.028110789135098457,0.08069146424531937,-0.044832743704319,-0.0017530802870169282,-0.1769839972257614,0.10470911115407944,0.13701169192790985,-0.10696136206388474,0.14562557637691498,-0.0743677169084549,0.15931084752082825,-0.07317247241735458,-0.04306784272193909,-0.13197298347949982,0.022763948887586594,